-1.243364881220662514e-02,1.523732227057079253e-02,1.325376416895368342e-03,5.013094899825226540e-03,0.000000000000000000e+00,-2.440328097235890809e-02,0.000000000000000000e+00,1.717257960806089015e-02,-1.147652538263237797e-05,-4.839668835243097112e-04,-1.556724625001037164e-02,-1.999423163721845628e-02,6.648880003917933060e-03,-2.574571496321171118e-02,4.798921307719478634e-03,2.400404914164655859e-02,-2.315252730932642472e-02,-7.183155287359185154e-03,1.584871187739420734e-02,4.700710360296390250e-02,-2.315013689577746022e-04,3.683539231975075517e-02,-3.046451722236622329e-04,-5.059423338802759677e-03,2.959919904962014792e-02,-6.559694102434166104e-05,-2.841262179864747470e-05,7.635442787775184592e-03,-1.023771153309774876e-04,5.032975846202720157e-06,-1.256549138221513262e-02,3.182899854266383471e-02,-4.217915681279433724e-04,0.000000000000000000e+00,-1.324095861725073722e-02,-1.411672756107606964e-03,-3.159969977368456279e-02,-1.897725958232106963e-02,-2.044856284084107731e-02,-1.447077927042794644e-04,6.791592639635490869e-02,2.883831595138214646e-02,0.000000000000000000e+00,-8.096943918951332239e-03,2.176889310530055657e-03,-1.373346825283342301e-02,1.890548617836315020e-03,7.135210236785462668e-04,-2.113036824072054079e-02,-2.806060269572838273e-05,2.790561891525423707e-02,-2.319083529825922754e-05,0.000000000000000000e+00,1.042677193482847639e-02,3.996990364880177032e-03,-3.059992084289625561e-06,-2.391118563719835804e-02,2.218616182188062197e-02,-1.400678699152577665e-02,-3.389346827738044798e-02,1.346800842792729956e-02,2.616035300678473501e-03,0.000000000000000000e+00,4.278334746275665873e-02,-2.585142533587150501e-02,-9.643037345111562294e-05,0.000000000000000000e+00,-3.791271037313941744e-02,-3.484589490073677020e-04,-9.181094531986474887e-05,-4.077646467711560328e-03,2.055113472407030933e-02,3.621558070444600656e-03,0.000000000000000000e+00,0.000000000000000000e+00,-7.892836199657944987e-03,5.831112734271108600e-02,-6.161138221828218152e-03,2.880515578946674093e-02,-4.154693643379284845e-02,3.094419585908872797e-02,1.584160102902811354e-02,1.348637598916358794e-02,1.125221068631501422e-04,0.000000000000000000e+00,-6.766154906177491990e-02,-4.202050101936641996e-03,3.348829231491231434e-02,3.994755324294401583e-02,-2.632772311947480931e-02,-8.822026101294676292e-02,8.717526044605293165e-03,5.095628702852082054e-02,3.962069205853756271e-02,0.000000000000000000e+00,2.952834863466381049e-02,0.000000000000000000e+00,0.000000000000000000e+00,-1.507540072640406806e-02,-1.941005669707028536e-02,-1.341398231065705701e-02,-9.438109090263133855e-03,0.000000000000000000e+00,-1.856603035381980751e-02,0.000000000000000000e+00,-8.377222135890692936e-03,-1.687523695190605577e-02,0.000000000000000000e+00,-2.216173604307812225e-02,-3.722777388683385421e-04,3.059267271243232278e-02,2.947944664206210777e-02,-9.963314786785913788e-05,0.000000000000000000e+00,-1.972686980332013455e-04,4.331879956327747095e-04,-2.281028237363508585e-02,1.357917680286886697e-02,3.263811422289885061e-03,-5.784949332257614796e-07,0.000000000000000000e+00,0.000000000000000000e+00,-1.313645227291790341e-02,-9.386517116262104582e-03,3.707509539195949391e-04,-1.696864076299180527e-02,1.919901711041312534e-02,-4.235181089913554980e-04
