-1.580365666039442590e-02,1.292065679404611617e-02,1.636763021051537009e-02,3.684876665665280399e-03,1.919337891070272816e-03,-2.243900765531781430e-02,6.204684019397943562e-03,1.829894927901814378e-02,4.823905743272125131e-03,-4.548800659989667497e-03,4.799284503758188825e-03,-2.319758474114782393e-02,2.801736972821215407e-02,-9.085573796217041517e-03,1.518165899695972203e-02,-9.418910186543999821e-03,-1.926271325562984443e-02,-1.009708417133849470e-02,-1.204077286588555243e-02,3.792748135087955358e-02,1.134524203258449777e-02,2.910147871508992137e-02,5.492368647377023592e-03,-2.407110388555139518e-03,-3.224137240561141069e-03,-1.697563859508919790e-02,-5.350901013709551644e-03,1.149413280579022209e-03,-1.761339857134042869e-02,-8.733096873280834019e-03,-1.589201331703501280e-02,1.147230531563596043e-02,-6.790295458290002313e-03,1.221507617828390159e-02,-2.524876986409138949e-02,-5.017475455608620899e-04,-6.875380364258352377e-04,-8.972595787708608286e-03,-1.937594471333205226e-02,8.072205250701553966e-03,4.238963825305119837e-02,2.038761677915708337e-02,-9.358721970096583326e-03,-5.685601467179038707e-03,-2.397493061290911689e-03,-1.903846135718547565e-03,-1.434849671654694512e-03,2.591607567501920742e-02,-3.099050267644918796e-02,-5.486159426560241123e-03,1.771827942742353751e-02,-6.329599371435037231e-03,-1.168377936499308961e-02,1.664087441599614589e-03,5.895464408737196432e-03,-5.886204747850096869e-03,-2.011500130396891642e-02,1.467016956195443117e-02,6.634659835262562456e-03,-1.783546499199346880e-02,-1.351445526900703353e-03,1.582231425450715198e-02,-8.178534034609573344e-03,2.763233622037350803e-02,-1.337566637000153595e-02,-1.308482163080677309e-02,-8.613989983053196853e-03,-2.830382168396613010e-02,1.091962760633968799e-02,1.290051741866716888e-02,5.887544404314906839e-03,2.110301395058875734e-02,-1.658363157717930580e-02,2.066486654015956166e-04,2.090002664909306092e-03,-3.859125235771509229e-03,3.319820003968649430e-02,-7.567857618214422245e-03,4.562285957447987338e-03,-1.248293883596985829e-02,2.036902884970431468e-02,3.507914217299288803e-03,1.283036407564614768e-02,4.912579606648583182e-03,-2.242607563576081830e-03,-3.612236696032029154e-02,6.374754133761949271e-03,3.135112650103518556e-02,4.906965979970254188e-02,-1.450794115903461870e-02,-4.004598403266317747e-02,2.456849767503581621e-03,2.006725919906790154e-02,2.318989445624704271e-02,6.950350752622549673e-04,1.353369548148073255e-03,8.968030879442983813e-03,1.124527196691031336e-02,2.180867870904268802e-03,-2.501977376258964695e-04,-1.560517712773085500e-02,-7.880633883353568847e-03,2.494325651683101594e-02,-1.862832008916413817e-02,-8.766123172201403108e-03,-1.170434540954133976e-02,-2.360221550783885014e-02,-1.993485453754364079e-03,3.762525269372939390e-03,-3.770763616919328015e-03,2.696166946404155839e-03,1.237409206584984787e-02,-1.023180588470896588e-02,2.685535493157099104e-03,-3.705081171283799036e-03,5.349402919750988541e-04,-1.947652177548121755e-02,1.958658343284082337e-02,-9.095872708949365865e-03,3.934763317810221692e-04,-1.691689844532580063e-03,-1.890415061856936564e-03,8.861784208289938403e-03,-1.105530434599755890e-02,1.202232327537203563e-02,-8.390135699842395794e-03,-3.221525687882068837e-03,-1.389543794448921390e-03
1.020789192869686396e-03,1.514479550253246959e-02,5.340710685180183022e-04,-6.788394412804445686e-03,-3.084671492455258197e-03,-1.688576384926982268e-02,3.543083213430036488e-03,2.494370139597505698e-02,-1.039406125903026903e-02,-9.092683192743070478e-03,2.559533126473306341e-03,3.532987596176089852e-03,-9.084303825218020823e-03,-1.389050501487087801e-02,-7.279732457346523196e-03,1.586783465022538822e-02,-1.263948434263745257e-02,1.654961777778708384e-02,-1.476817822188224855e-02,1.819062882991234406e-02,1.125108334800416048e-02,4.813187383434157710e-03,-6.526930686415918260e-03,-1.005440075045669355e-03,5.157630849319275353e-03,-1.793789470163933628e-02,7.584381342105194282e-03,2.027439740675941737e-02,9.470242819473031343e-03,-3.000154591973044904e-03,5.786732875788109728e-03,9.956720895693320361e-03,-2.533017476257552053e-02,-4.418699582709391914e-03,-1.765980778762859735e-02,-8.922169419748243735e-03,-8.905110661901973271e-03,-1.565788395031258301e-02,-1.367065920590093860e-02,-3.712353112944312156e-03,2.531222260855506626e-02,1.746379143808564349e-02,-4.484237287176837290e-03,-8.784565280334456425e-03,-5.077599978881949805e-03,-1.465521387205929484e-02,-1.601584799398642761e-02,-5.037536950991627037e-04,-2.146579840605476394e-02,-7.370591459908430038e-03,2.013296152385810056e-02,1.082095246574640499e-02,6.053502808414589278e-03,-7.244306415815889369e-03,-1.292577464135484175e-02,-1.867643422965694364e-03,-1.437124648730887452e-02,1.729379044502921126e-02,-1.303762008385879120e-02,-1.731468859303817581e-02,1.427227884657079893e-02,-6.883314772879857955e-03,-6.539459370839776492e-03,3.242530578626269533e-02,-2.266842539783156876e-02,2.098197807833203539e-03,-8.418294033898373468e-03,-3.117680503299166336e-02,-1.959179972496905356e-02,-1.373191667779989980e-02,-8.427552945651971272e-03,1.256231589909276303e-02,-9.630415450827536569e-03,-1.131196121674775054e-02,-6.243399158952782531e-03,-4.832690057496821269e-03,3.730394071555418606e-02,-3.037376221701010900e-03,9.818851246019312529e-03,-1.152968170664156813e-02,5.393635520282364856e-03,9.378664253695351283e-03,1.050056472815640886e-02,-2.431061076848160460e-02,-3.632481564910802069e-03,-3.545375870293897974e-02,1.839319202699738962e-02,1.516282476632523947e-02,1.400161150152500096e-02,-2.465915824430486153e-02,-4.282067010350782549e-02,-2.054440521961039059e-02,4.212875737658287878e-02,2.399922602718418396e-02,4.244833388724245440e-03,8.036251356061238985e-03,3.016441092143132274e-02,-1.681167727914589446e-02,-1.445095165793975310e-02,-7.424816176748468173e-03,-1.883741107924882981e-03,-4.035015864939451094e-03,1.759259696488373742e-02,-6.586096746590878147e-03,8.746770410769925952e-03,-1.259405406978301306e-02,-8.639628109981211529e-03,1.304429616766198405e-03,-2.353174968399277325e-02,-1.026024131959554081e-02,1.560291307551459235e-02,-8.469071923481516842e-03,-8.772314193763050549e-03,-5.688064029663804887e-03,-3.740717891837056202e-03,-2.444020676326376720e-03,-2.396884374775298115e-02,1.610934604761058916e-02,-1.234213006273193053e-02,-4.013441192925929109e-03,2.003669695839148390e-02,-5.516822562307925268e-03,1.179092704961608173e-02,1.106844527176853790e-02,6.017881823379631068e-03,-2.721890948247141992e-02,-9.364634620279012334e-03,1.068897229894308007e-02
4.426656739734287881e-03,2.152703022060103912e-03,-1.539840144779559654e-02,4.488629684722506182e-03,-1.603471555133485424e-02,-9.122922840845641701e-03,5.388205217154213092e-03,2.410991269864071196e-02,1.071409936451583542e-02,9.023966792835779252e-03,1.224211206144191133e-04,-1.163833338204761474e-02,-6.079065313707631086e-04,-1.172079985323041564e-02,9.673366669259644422e-05,1.018432370885609568e-02,-2.293310051027855345e-02,-1.362799364046719808e-02,1.658740805908223530e-03,3.185844705320407116e-02,-1.402861337262925785e-02,2.414213985525106784e-02,-1.224214861586693645e-03,-7.279159328483707572e-03,5.393053584960015405e-03,8.041241004628050734e-03,4.203917116929313177e-03,1.211120842399436397e-02,7.151469850040324296e-03,1.633160262309849356e-02,-6.845215250097366408e-03,9.398489613946393179e-03,6.339275665858532709e-04,-1.428422183093055672e-02,3.478810167469149374e-03,2.358667257963252897e-02,-1.722293981414354733e-02,-2.059978227897879891e-02,-1.682914371924388447e-02,3.951858054257355486e-03,2.580081248866618673e-02,-1.838422194116806109e-03,8.911700487540741983e-03,-1.496658006529805705e-02,-1.918851863740277108e-02,-1.308709252371833935e-02,-1.131711014233962621e-02,2.337640499278930903e-03,-2.935595654699752963e-02,-4.361825231642469693e-03,1.807527017417501908e-02,-2.151951631406792773e-03,-5.418101964333840032e-03,1.538550209948511124e-03,-7.651026977321477227e-03,6.685470371728052634e-03,-1.460172909555551221e-02,1.298430457828354812e-02,-2.657198312364265902e-02,-3.582984126308032258e-02,4.739136121450731980e-03,3.668407342916365707e-03,-1.021752778712211630e-02,4.144167658046386815e-02,-1.516699686557671824e-02,4.817243884736601388e-03,1.017568290814141289e-02,-2.651138347902169679e-03,1.632199259626189447e-02,4.001003460607037258e-03,4.467060868674145764e-03,-1.508481156820288063e-02,-3.923054798086247734e-03,1.961877640495658659e-02,-7.485693737409990570e-03,-1.129142046628358979e-02,3.806631812199266079e-02,1.099395174471092494e-02,2.288100651352573123e-02,-1.129985947548814429e-02,1.787788671238602772e-02,-1.758602363451076955e-02,1.391861472885285063e-02,2.132785314796078677e-02,-1.175574414198930773e-03,-4.390311836754529767e-02,-4.117628230500765089e-03,2.620103924811333432e-02,2.215933435177579527e-02,-2.419739483782783196e-02,-4.995654390923020410e-02,-2.090138665512969018e-03,1.510773875695771949e-02,9.686741478952645354e-03,-8.785246496507760280e-03,5.822377448738353875e-03,8.940381735982154410e-04,-8.452301084106763826e-03,9.080463299838774024e-03,-1.476614593310526802e-02,-1.131686250170439202e-02,-1.442897268893809405e-02,-4.661783889870092616e-03,-2.413969613730672370e-02,1.241832485937853503e-02,-4.638725228523546233e-03,-1.155388066290271047e-03,-4.484325158190763383e-03,-1.855674417893102626e-02,-5.543854843971955659e-03,2.922015465997628014e-02,1.173637362455219081e-02,-8.026786312376417432e-03,-5.853260933569348450e-03,9.458828049886522718e-03,6.420891720922742262e-03,-1.802271536282256531e-02,-2.187071306199314235e-03,4.454555599435752571e-03,-8.549776398957605484e-05,-4.895539354088854558e-03,-6.765048857312118066e-03,1.580018544114928335e-03,1.443921706783611592e-03,1.570210437625106127e-03,3.571392505737065997e-03,8.174732273631853813e-03,-1.341872447827858160e-02
-1.387555578814884949e-02,2.060826458309245740e-02,2.407667346417344950e-02,7.808649626433347007e-03,4.766964112137842685e-03,-2.207787299999710087e-02,1.082369320058998961e-02,1.369975341577406129e-02,-9.560162097269613024e-03,-3.066270551263421042e-03,7.913681300102098221e-03,-1.704125514993067025e-02,-6.128905840125833948e-03,3.288057360336081765e-03,1.121656980848073810e-02,7.087670298280428910e-03,2.682127915071433420e-04,-1.364807856895246252e-02,1.571530063269497082e-02,7.741087458369311919e-03,1.255830306663046660e-02,4.719235625935888634e-03,-6.987466059657567417e-03,3.696606581498005847e-03,6.342849854630722324e-03,-8.385587387255210440e-03,1.299672582106728251e-02,1.916032510368944480e-02,4.582420827668883217e-04,-1.035244358650475906e-02,-3.762655227552893361e-03,1.951920208797324960e-02,-6.734417886516014815e-04,1.559375083469616285e-02,5.792756907711683195e-03,8.956118122512977302e-04,-1.829528299476310474e-02,-2.000688917726102869e-02,-2.472095826627632165e-02,2.526219715286286051e-03,2.172575264314876783e-02,6.806718972341036476e-03,-1.847979003907458673e-02,-2.133992697996596119e-02,-5.657289243804985990e-03,-1.345253712378700331e-03,1.897895179311207686e-02,9.175103619725885618e-03,-1.653747698444024000e-02,-1.776607456605696841e-02,9.358634199487797165e-03,2.030326330211002905e-03,6.781545803348117130e-04,7.158436115935175315e-03,3.306750271153846132e-03,1.291319877726451390e-02,-1.459410785770096433e-02,1.386967259841703727e-03,-1.233846663281841158e-02,-1.783688712042992564e-02,8.823613129589766985e-03,1.831049250799024735e-03,3.689183799691718186e-03,3.277169686244983671e-02,-9.288998082755640581e-03,-1.388336995380180794e-02,-1.358921676220379779e-02,-1.885701318688915232e-02,6.125250307689063083e-03,-2.545983698989604514e-04,5.699995647426749600e-03,2.257306271205925668e-02,-8.309691398612937055e-03,-1.185144662764511456e-02,9.352524124748336090e-04,2.027884784009550967e-02,3.303732752354323482e-02,-8.533651245227107454e-03,1.733548983833126805e-02,-1.178691649247725834e-02,1.327971121130231899e-02,9.140919577462117140e-03,2.756362554833647824e-02,4.182680742443929504e-03,9.476331133633076990e-04,-3.355848019843733071e-02,-8.427588321243248762e-03,3.149360682623213864e-02,3.337918911400340749e-02,-2.513413845531500129e-02,-3.903102979040364712e-02,5.037698234352665054e-03,2.580853579007749352e-02,1.591893308033901638e-02,-5.355693838313050834e-03,1.536951679032930868e-02,9.494194234664144957e-03,3.644947541545164342e-04,7.085503925729203303e-03,-2.461270784578567690e-03,-9.646696460109861412e-03,-4.259548754741680765e-03,3.698867334273650206e-03,-2.207805565100392359e-02,-5.539304102498633815e-03,-2.044160670496355213e-03,-4.910503163529339465e-03,3.209156934865259759e-03,-1.969200886059116820e-02,5.958704061229996331e-03,2.816280614595133031e-03,4.288599937123402026e-03,-5.404448275653547795e-03,-6.297283139692726878e-03,-3.081288914845386247e-03,-1.762383615454380173e-02,1.021175182583760298e-02,5.771252387374791251e-03,-2.826536372261877726e-03,6.964521681300102698e-03,-5.231430195839815740e-04,3.228213608829464450e-03,3.392453676025145286e-03,-8.819462370766091575e-03,-8.328094036183640581e-03,-1.702661581796341850e-03,1.303594217154352766e-02,1.024925935922857759e-02
3.345614989450496155e-03,-1.252416109508108430e-02,-1.287163780759243044e-02,-3.352714544949437266e-03,4.056317065696484966e-03,-1.820538763987655448e-02,-1.066243317247074669e-02,5.985869591856591079e-03,-1.180411437548067139e-04,1.336755872471504479e-02,-2.688350254522852822e-03,5.654800554137166466e-03,-1.658498849826546204e-02,-2.555363580857925379e-02,9.799843262884281106e-03,4.451256254452432004e-02,-1.442800501032387092e-02,-1.717228283374517758e-02,2.000491415739480069e-02,2.447719897003639358e-02,1.638773608876366999e-02,2.043112335086540512e-02,-2.283220175093562780e-03,8.925258042332616729e-03,2.306826271165710734e-02,-2.472448719147921688e-03,4.307564351462890746e-03,-5.443948856154130767e-03,-1.281402658942857112e-02,-1.153861247832020133e-02,-3.171662055373688713e-03,2.401155001723781143e-02,-6.291551646458834642e-03,8.233223590733999495e-03,3.749733580609669061e-04,-1.555304225256209753e-02,-1.633143878457716733e-02,-2.823908911562294718e-02,-1.889098183659021881e-03,5.584661375066459973e-03,1.715324928590765755e-02,2.506259569081263627e-02,3.947134249142945570e-03,4.919729920952232299e-03,6.968494370013430042e-03,6.471462116966688813e-03,3.733802509142303012e-03,5.632847633467318385e-03,-1.236017960585187626e-02,-8.318715437343427929e-03,1.068290684842893544e-02,-1.206861934463204777e-02,8.695845861681235703e-03,-1.386631820601851028e-02,1.824219308816382376e-02,-4.041154370177215197e-03,-6.395595130803863847e-03,1.512384853763126466e-02,-1.022046408930664049e-02,-1.929768378829901931e-02,1.070848444821706491e-02,9.601459114901979980e-03,2.770371986171908229e-03,3.198118177981337795e-02,-2.218659498874156130e-02,-5.825951205240390875e-03,-2.440924407882121006e-03,-8.805584294113131399e-03,-8.845861611808659292e-03,-6.046530929465613463e-03,6.819732298095304741e-03,1.357266600869714429e-02,2.966070325454487483e-03,-5.884164301684732638e-03,-4.567258217808041823e-03,2.731165850504584536e-03,2.284954727863705570e-02,-8.332496326508559772e-03,1.161824772233647704e-02,-8.145423900239902315e-03,1.503548763190697829e-02,-6.412751279532440118e-03,1.536693137408827632e-02,-1.509846459710917571e-03,1.065817123713602016e-02,-3.152531511205435011e-02,-2.946656556086067573e-03,-1.234179792687906379e-03,4.482827522202688202e-03,5.213829533615242824e-03,-3.526322798328956204e-02,-4.372580664172172164e-03,3.381669264785845674e-02,2.365521878472374995e-02,2.368189976402441249e-03,1.417289200781988653e-02,5.649426239597004490e-03,-2.928665032220510549e-03,-1.456551850003217317e-02,-7.692371786795057856e-03,4.062896644555018602e-03,-1.413039092397567510e-02,6.468831440187221282e-03,-8.416523625875801246e-03,-1.046422692905749942e-02,-1.390292906784171972e-02,-2.589515695330568690e-02,1.206145498227809316e-02,-1.918084019571713109e-02,-7.601302361010983145e-03,6.720862625218898545e-03,5.768890190062035163e-03,8.446421754071785012e-03,-1.790736194570537523e-02,-1.566945769611752725e-03,-7.433577812597362035e-03,-1.157367660531588745e-02,5.370439951811538729e-03,1.322453243938696843e-02,1.179843480286868083e-03,-2.236407746292421676e-03,-6.765604095746839859e-03,-1.894133400169476997e-02,5.321372828766683313e-03,-4.006746388162466248e-05,-2.163482889129219027e-03,5.293834593257722328e-03,-2.376567518249500521e-02
2.789710913761168660e-03,-1.306530792133279995e-02,-3.605031334658900279e-03,1.272912530566632124e-02,6.146670481140786846e-03,-1.921255069268868257e-02,-2.121375264603935634e-02,4.494181872537224634e-03,6.987307313378278949e-03,1.536151784150405035e-02,-6.192646668492186521e-03,-9.602697382378502441e-03,2.005063047289078540e-02,5.349123469187978298e-03,7.357733504655300169e-03,2.355678310847776277e-02,-9.095211973474411071e-03,6.955965929677362589e-03,-4.695755261092139470e-03,2.029370320349524817e-02,1.562953729009311640e-03,2.613821195610232032e-02,4.264480271268093238e-03,9.894292034385512510e-03,1.564574052525948694e-02,-2.653061967145342245e-02,-9.751491039986464812e-03,1.455367677405628715e-03,1.155200236129061767e-02,-2.797825402666003283e-03,-1.603532023068104245e-02,1.470046491861824040e-02,-8.374636320337384629e-03,9.253155408104195290e-03,-5.073675118821674435e-03,7.059556339556262265e-03,-3.587989371144687228e-03,-2.296592577233574559e-02,-1.163245227973096034e-02,1.414882864917923685e-02,3.538358903977713299e-02,1.333490582788826422e-02,3.255213135486640427e-03,5.558974605965435328e-03,-4.557602632944445994e-03,-4.945980725403534978e-03,-4.175940912457576891e-03,5.083587723807412098e-03,-1.100770473675048884e-02,-9.713271745377845268e-03,1.089787851909553365e-03,-8.721993548625872963e-03,6.042782502341192963e-03,2.739961144321863881e-03,-1.581812527803302514e-03,7.710013273301856776e-03,-7.546983718763462107e-03,2.022643113864548009e-02,-4.981290418858503634e-03,-3.704952230731614615e-02,-3.411550879602514262e-03,-2.498827364639889369e-03,1.237426498118272995e-03,3.503757663118252375e-02,-4.323986740132051282e-03,-1.071055155647359595e-03,9.545042555379025864e-03,-4.519835735885111352e-03,9.670016622999056885e-03,-1.449841467640477360e-02,-8.419355090718047552e-03,9.277071398756689359e-04,-9.055350778911312390e-03,8.394791968895067014e-03,-1.225580525382295814e-03,-7.661740460877144825e-03,3.095828905423294100e-02,1.425045884264030706e-02,2.475520156747109540e-02,4.697865636536468353e-03,3.458762324394409546e-03,-2.073191106905644329e-03,2.482359084945964713e-03,7.364784555674771908e-03,1.077456204773031244e-02,-4.412221187514504123e-02,-7.647875401572101252e-03,1.893284328393740959e-02,2.115599939830302076e-02,-3.013416717522569149e-02,-3.270377973064204219e-02,1.041524188247257982e-02,1.133875794315597312e-02,2.630870163033812575e-02,-1.498732288527778941e-03,1.391137914092476641e-02,3.366141401700586109e-04,-1.443314425840200310e-02,-1.226445786086099478e-02,-4.580410444531695345e-03,-2.644787871629602268e-03,-2.065817803398926553e-03,-4.996714036206954292e-03,-2.208070462127953004e-03,-1.092538403767062856e-02,-7.276871774268139047e-03,-2.940358102317140124e-03,-1.548096511811427115e-03,-1.010291129617305744e-02,-1.691734400733963667e-03,-3.587970243425644013e-03,4.501467764353269362e-03,-3.852146784088754296e-03,8.156944256178485283e-04,5.440396005847149274e-03,5.990698946804419618e-03,-1.978686404991657904e-02,-5.162575689624412240e-03,5.136819004595608550e-03,-3.289620892299928434e-03,3.649612964613710517e-03,-1.971432991219243796e-03,-7.327830280141604813e-03,-1.290058922140055464e-02,7.356736113687284417e-03,-1.605257827991622699e-02,3.417098019422108723e-02,4.730788706738564033e-03
-6.649302387965180978e-03,1.169791867685140638e-02,1.396733896922992997e-02,1.631605358161727221e-02,8.278197167661672032e-03,-1.042703020886562998e-02,-1.056913388598395426e-02,2.165313048278050267e-02,-7.707016864972724215e-03,1.314903911183837489e-02,-2.356864700155809206e-02,2.330429236888512806e-02,-3.533253456723426528e-03,-1.380641058368403153e-02,9.064940802940646761e-03,5.309722163333981332e-04,5.048115427536575307e-03,-9.601495701725148296e-03,1.270398193784887456e-02,1.883647056719734911e-02,-1.158094597425675214e-02,1.864830648712702613e-02,-3.412013433792021599e-03,1.113331317739270181e-02,1.948539333345612051e-02,-8.296814820282218464e-03,1.398689747853326497e-02,-1.097304470091824309e-02,-9.492229082254223863e-03,-2.170658507028610032e-02,-2.279418834435110314e-02,1.416303509488078469e-02,1.056262547118063831e-03,9.057575342061920456e-03,-2.525726414644769227e-02,-4.445118884645424696e-04,-2.439188484694987738e-02,-8.837868703432416942e-03,-1.674716481685776387e-02,-2.777356796371126301e-04,4.914570705369634973e-02,1.269130275332698045e-02,5.315623610102447952e-03,-1.396740449225051910e-02,-7.329901185784706841e-03,-9.658680152456361120e-03,1.162093187729857681e-02,8.217177417015362334e-03,1.516206410288208550e-03,-5.890303061636091575e-03,4.442873635755789120e-03,-1.942108574906614617e-03,-2.385562470127711493e-05,-1.206851111770453067e-02,1.261407728181843796e-02,9.015559132773676848e-03,-2.841725414667115382e-02,1.261314070132385718e-03,1.657389016901094150e-02,-1.500580392736264833e-02,5.553962508184954149e-03,-2.180286660860357092e-02,1.280909407869446873e-04,3.388070962454439727e-02,1.191456499040722573e-02,-1.359070688281683583e-03,-7.520717457841209937e-03,-2.473657186709203940e-02,-1.278736307170721433e-02,-6.979793122318860531e-03,1.419960746281276158e-02,1.822766076211731340e-02,-1.223821506709800618e-02,-3.447267074126722698e-05,-1.041641887204699081e-03,1.125485759796870412e-02,3.559468750563337530e-02,6.256787198068806781e-03,2.150689322285950777e-02,-1.285041132959075655e-02,1.589482184126534900e-02,9.811451243453069015e-03,-1.356077931660440872e-03,5.529473603662305066e-03,-1.646198057296898581e-02,-2.551983217588205469e-02,-2.494093890795004778e-03,2.068125020363136349e-02,1.450578841308444202e-02,-1.058580082196931491e-02,-5.366238792207052993e-02,-1.328450484888794858e-02,1.888442963259367655e-02,1.006329732776058312e-02,-7.007327796854914345e-03,4.676033657230642751e-03,-3.979975930369183783e-03,2.336255282760287162e-03,-1.999872002629983145e-02,-3.157252864299533134e-04,1.334839794741187434e-02,-2.271273482979928055e-03,-9.671420722181972227e-03,-9.306807545874368551e-03,-9.921418057342969773e-04,-3.997348862130212233e-03,5.787666534048011013e-03,7.877174372958714935e-03,-2.610922187427302046e-02,5.539495513251709328e-04,-1.017135156206563050e-02,3.802636960381320513e-02,-1.820314923814150138e-02,4.547328955747621457e-03,-1.724939133099288174e-02,3.507008446633361198e-03,5.186514774952118677e-03,4.208924089454141315e-03,-1.208641799999966154e-02,-7.244043514776493491e-03,-1.829737707333582014e-02,-6.649416372536261395e-03,-1.297242126334714404e-02,-2.011553421164180219e-02,-2.193853753529794934e-03,-5.618483660460647615e-03,1.272174581515848543e-02,1.089928462740396946e-02
-3.202920420020477759e-03,2.482859501168393351e-02,1.046784368770761579e-02,1.512281192554332764e-02,-6.104357307241007951e-04,-8.851272705917935524e-03,2.972526413048856044e-03,7.313523975682673702e-04,-1.976216603717342521e-02,-5.581586992578832854e-03,-1.081801625214273699e-02,-4.652459179032075037e-03,-2.465681367785701149e-03,-1.243058452893304640e-02,-8.586894397423923062e-03,1.039590694659182392e-02,-1.055830766216230357e-02,7.539982661193431364e-03,-4.252561058110944196e-03,1.461507541585927057e-02,-9.040843614806415643e-03,1.305326650490407948e-02,-4.181730537369281707e-03,-1.053766347202569030e-02,2.443836953995905115e-02,-7.724432387453693087e-03,6.286509895912147441e-03,-2.914608306408858485e-02,-1.157155077399167967e-02,-1.674585204903530564e-02,-3.438787202999602378e-04,2.161776628427621375e-02,-6.652444337018602674e-03,5.566449051432353391e-04,-1.102513155599259623e-02,1.432335532927123123e-02,-3.151623497212774350e-02,-4.264283203716883429e-03,-7.142103925465452009e-03,3.806441229799318281e-03,4.519799027320343943e-02,1.963922403450452103e-02,-1.098900101642632382e-02,6.749644552875201306e-03,-5.581293339851094507e-03,1.391223205097988184e-02,-2.229628858844776712e-02,-9.311190393441901025e-03,-2.115032244626302918e-02,5.214584575303457840e-04,1.831273284951322189e-02,7.825149514746857979e-03,-9.534689378285238909e-03,6.185416122479277592e-03,2.976525379896704723e-02,4.257816027536611217e-03,-1.933993132123955003e-02,3.458414305964164961e-03,-8.632809191773182372e-03,-9.939151694450492139e-03,-3.082963171481641583e-03,3.509499265622318103e-03,-2.856137735894492390e-03,1.512537634485826288e-02,5.435614885810175281e-03,4.697855721133260658e-03,-1.389004267184336741e-02,-1.099682003723511129e-03,7.486877149543806446e-03,-6.041268650332789168e-03,-3.524747447777749291e-03,9.195037096416756178e-03,-1.111285514733673270e-02,-4.090702570364999902e-03,1.265330696971374118e-02,-1.431946586715279225e-02,4.197882325392388730e-02,-1.042124238263650478e-02,1.728650012380690548e-02,-1.001347295105549720e-02,1.507413181100157595e-02,8.419782151877584081e-03,-4.649234867445011139e-03,1.100179332198950727e-02,-9.922134708696482563e-03,-3.425188205175506290e-02,1.242880652631075077e-02,1.050924823369866687e-02,7.997656449868320236e-03,-1.729280602865094357e-02,-4.970528932913641923e-02,1.102212497433915223e-02,9.645185100552596327e-03,1.185956054522302287e-02,9.010608018791188740e-05,6.671375321764479865e-03,-3.223035648827032428e-03,1.904196797651002901e-02,-9.672790972152253350e-03,-1.702735789488641488e-02,-6.583080076904418432e-03,4.149932895225498172e-03,1.987485215096297664e-02,-3.014769528345298544e-02,1.213893001228882884e-02,2.441693634526162504e-03,-2.295974731068987224e-02,-9.761577589785215905e-03,-1.387588866134873214e-02,-1.477205019257870310e-02,1.187758228586150745e-02,1.145286293116143210e-02,2.209794192444180030e-02,8.140057524359270436e-03,1.342933479027008659e-02,-7.885635689804862750e-03,-8.897368732452832010e-03,1.136465282756518418e-03,7.385850920218360940e-03,-2.097448444001714929e-02,-2.824351231665788234e-03,2.489048366668808812e-03,-1.264693032606812109e-02,-1.110974482876363276e-03,1.730741301169327201e-02,3.074098644849601169e-03,1.032666472956358938e-02,2.006246958586387422e-02
-1.182066534197719412e-02,1.730277513243232840e-02,2.533391628398867085e-03,-4.422026827874390477e-03,1.718543716303690128e-02,-1.191803530222784388e-02,-7.417312816686769117e-03,1.422810857954428208e-02,2.607018607658303892e-03,1.993726310549607389e-02,-1.123105335716754680e-02,-7.347670831762784238e-03,4.396469910299806091e-03,-1.665033002196375858e-02,-2.386952017646044259e-03,9.589138287563938462e-04,-9.938632277365803264e-03,-1.906293624704253828e-02,9.392997600867734193e-03,3.381213082761696381e-02,-2.767565662578308668e-03,1.834522090384639245e-02,4.349545101836149556e-03,-1.314706143516413371e-02,6.314648927018118481e-03,1.679064769866965567e-02,5.124693569583678443e-03,-7.092054531783050300e-03,-4.616187720927219075e-04,8.784202322508422381e-03,2.917974228816391444e-03,2.675998307263153728e-02,-1.660703500344184623e-03,-4.655450549358166809e-03,8.535696751425510959e-03,1.251251641702773310e-02,-1.720186709093975488e-02,-9.480515949109933130e-03,-2.035736189819876626e-03,1.281742590985859159e-02,4.981575898739959429e-02,6.514208466994019474e-03,-2.033839468562221534e-03,-1.636102548611709576e-02,1.251647257035621262e-02,-2.301215126050707924e-02,1.289774565077549638e-02,9.230614901278192536e-03,-6.575170557655224055e-03,6.362757626804460900e-03,4.636887630745537524e-03,-5.177038914250082016e-03,-3.488474182524272152e-04,-6.588418540597145573e-03,6.003636787277524117e-03,-7.952171441466187457e-03,-8.811978563017460603e-03,1.629772673681108980e-02,5.301674221279702279e-05,-1.176024332030642904e-02,-3.215371744784583687e-03,7.218728193065327391e-03,-8.803262190464167941e-03,3.262210458075462394e-02,9.909531475185268373e-04,1.306663624970050112e-02,-1.731708410906928480e-02,-2.074471175276349985e-02,9.266831836040177739e-03,-7.285441540552534297e-03,1.255507857231056602e-02,6.430213786569881004e-03,1.794876515638159061e-03,-9.680837299264777318e-03,4.531271010295461442e-03,1.222728170051441861e-02,4.494982613752099981e-02,1.269470924079618528e-02,1.844291422715985118e-02,-1.371972857088661277e-02,8.895461280986387276e-03,8.464407554561122898e-03,1.131247284340934460e-02,3.497016502233096791e-02,-1.295086921644684856e-02,-3.688984283005972836e-02,-1.349586765396923287e-02,1.759118019879065895e-02,3.963595472487077553e-02,-1.941114030544664054e-02,-1.638626676996091450e-02,8.951785741588412504e-03,3.577582158775940990e-02,-1.217179670504102418e-03,-6.041463162663265191e-03,1.743889550045410464e-02,-1.856314542007570520e-03,2.312269720735564416e-02,-1.986232154142085916e-03,-1.680370567540193094e-02,-1.980763474099739470e-03,9.395864301311828218e-03,8.662937979081956896e-03,-1.109294340910891262e-02,-1.247096227391380173e-02,-1.005677539110652954e-02,-2.086076114744528625e-03,1.914438026820741018e-02,-1.770988326102914887e-02,-1.443122344766638223e-03,1.167835823017086307e-02,1.452078344648466239e-02,1.675080701638719319e-02,-3.841023197762089524e-03,-3.534855666892746263e-03,-1.037811560606766680e-02,-1.284636280638960966e-02,8.308273330689605607e-03,4.620053935328004117e-03,6.141282674522394452e-05,2.195259751311984275e-04,3.704898139011062841e-04,5.719851057478742007e-03,1.051461899119706528e-02,5.562616049756404987e-03,-1.404184997785845081e-02,6.961531889435533223e-04,-4.229099117267948226e-04
-9.459038259880485746e-04,5.618567991569367072e-03,8.140495015720851033e-03,1.050637414741117069e-02,5.854959463670108026e-04,-5.526344124009855210e-03,5.036470478985434138e-03,4.780519660295931214e-03,-6.829443599492197349e-03,1.001625392046751571e-02,-3.915918754014259540e-02,1.230027873288341237e-03,-1.956010286619099328e-03,-1.790679145881923437e-02,-1.057250870833893915e-02,5.395446923761590581e-03,-2.375506797424374594e-02,-2.121560757431572089e-02,2.076147001171002940e-02,3.281447927226608524e-02,-6.497508310487913087e-03,1.766722235086236586e-03,-4.685402676681132104e-03,-1.518806497334989312e-02,2.079813560154699509e-02,-1.641906855640111462e-02,1.087583711755768859e-02,-2.623323939925277688e-03,9.152017963033947864e-03,9.569808775811311854e-03,2.139077406612108906e-02,7.456490520275742273e-03,2.505917915201196161e-04,-4.869958926657186500e-03,-1.333078518692876917e-04,-2.524825105793974348e-03,-1.980147841239403642e-02,-1.297378232146542860e-02,-2.636500399274110257e-02,4.347162201573298752e-03,3.160372868472256791e-02,2.118466896737868782e-02,-7.085907572328449186e-03,4.223013377068055019e-03,-2.413689753813108834e-03,-6.882118656544517973e-03,1.759959368220383180e-02,-1.204126176486729205e-02,-1.900516744420016960e-02,-2.084901355903391942e-03,5.130014538216462298e-03,-2.926781546871978779e-02,-1.322475656070468998e-02,3.342536595293350843e-02,5.779236787150183671e-03,-5.794863732970826319e-03,-6.878697965950202227e-03,1.741964160517279342e-02,-6.449938461203373781e-03,-2.860817814332857617e-02,5.833696489493990674e-03,1.224391355828393854e-02,-7.761062992426188099e-03,1.133088727910983376e-02,-4.473798357134855727e-03,5.004544650291101876e-03,-1.241249499107506885e-02,-3.060235882915928254e-02,2.936772710140297081e-03,5.194605571903013370e-03,-1.310488557405755782e-04,1.708052429181174808e-02,-4.508499894444508056e-03,-4.396123356075655117e-03,-1.058655438011603216e-02,-1.295471487108191926e-02,2.908071237503590672e-02,-3.986872950771229787e-03,1.954298915284141680e-02,-3.125617929228521885e-02,2.351681639646762897e-02,1.098536917990305256e-02,5.441235513363865302e-03,-1.093581777073777440e-02,4.376825145624443046e-03,-1.690569064584676248e-02,-8.297952837542829294e-03,3.026865767603411500e-03,2.261989847294395770e-02,-1.356856830024615393e-02,-4.621749529463902578e-02,-6.356868921068031635e-03,2.773976662766826709e-02,3.613414152964355280e-02,1.929445427271304567e-02,4.193374137308041733e-02,-9.174111844791495857e-03,-5.257976956347197757e-03,-9.230158625200430081e-03,-2.032316595004109855e-02,-1.264289469074072851e-02,6.978195365003729903e-03,-2.419118956377547952e-03,-2.661054007558676104e-02,8.742981308281404240e-03,-3.628182700143106447e-03,-5.566212009816346590e-03,7.525956285007599431e-03,8.135724714239445793e-03,-3.259808608013423786e-03,1.554213964952512678e-03,2.352481321003566106e-02,5.879561208197469843e-03,-7.918581314971220170e-03,-9.480615825832146987e-03,-6.379879993339825951e-03,-4.805755824391861296e-03,3.485245693758195953e-03,-3.589855756001007758e-03,-4.575107979780669056e-03,-2.151172449019110762e-03,6.593263503155893934e-03,-1.815684995472681765e-02,-1.599590616828685738e-02,1.267072335741563837e-03,4.575688736961020485e-03,2.821735685928991686e-03,1.763922840015888505e-02
-1.200273041982437283e-02,4.726706733407528942e-03,-7.818759660374185669e-03,4.169254712632487585e-03,-1.283467216469143767e-03,-1.132069860173308407e-02,4.919116294842857014e-03,2.432309205539725551e-03,8.363390116583225772e-03,9.850784827101029609e-03,-2.039918293096738833e-02,9.384886066084117615e-03,-3.196913228548990508e-03,-1.277004450577679841e-02,2.289793407090528424e-03,2.772110471616171835e-03,-2.518344076499387605e-03,-1.002299087403860783e-02,1.458525560478989361e-02,2.675196019059321653e-02,1.437345531752812905e-02,2.056513175752421388e-02,-5.340508678728016385e-03,-2.024343021051636451e-02,2.689927912614197697e-02,-1.457211653816816929e-02,2.395519018197584966e-03,1.175206988544591317e-02,9.648483047493033177e-03,-3.422690729976333654e-03,-9.056931493662543839e-03,2.401910147014959737e-02,-1.222336831634648381e-02,1.222732843366971774e-03,-2.764738167569406532e-02,-3.389022816174571285e-03,-1.791230777617354789e-02,1.059978310762479427e-02,-2.030340364935888375e-02,7.105369175172800145e-03,4.515124007824046493e-02,2.429633582157707250e-02,1.485985428054868544e-02,-1.141252271649377710e-02,9.754064827565267840e-03,1.306096132456328711e-02,-2.009722999878565258e-02,-5.421725433444605363e-03,3.892065651259269711e-03,1.278244696869113625e-03,1.768606581902013031e-02,7.005272028541406973e-03,-5.928382198239672343e-03,1.726888434515929521e-02,1.219606239869351627e-02,2.595071371015052458e-03,-2.099313467933037677e-02,-1.971975483342410310e-03,-1.030527927735119809e-02,-1.928990831336673678e-02,-1.175114416157210795e-02,-8.443724083817247955e-03,2.290873980434053950e-02,2.873698739754478385e-02,-7.221539180413105372e-03,-3.099276856849031772e-02,-1.424951688590998626e-02,-2.360223835089734004e-02,-9.901416637894410594e-03,-1.085301469788790005e-03,3.288131926724669135e-04,2.866664581115763253e-03,2.766564462997573443e-03,-8.468096512436924100e-03,5.611162026164682532e-06,-6.923919879730258860e-03,2.006250259567567834e-02,6.396573242413963918e-04,2.548432950398008684e-02,-2.231136188007823776e-02,4.003866394422390257e-02,2.527775271140080687e-02,1.003617576945049945e-02,4.253166593688577531e-03,-1.656576199465093283e-02,-3.172556598129738087e-02,-1.107362642124712186e-02,3.666513302299232585e-02,2.681175711454238456e-02,-6.948518201683975175e-04,-3.575799066126156972e-02,1.366474445105134508e-02,2.297927993686578810e-02,1.780530873234588418e-02,-1.338579805616046210e-03,1.724959035842608263e-02,8.711379371031259533e-03,7.410630322941877748e-03,-8.414760699530017540e-03,-1.769953165765694031e-02,-4.061101394218486968e-03,-9.708662309161045570e-03,7.616346341050271758e-03,-9.056971243338153912e-03,9.789202958377476223e-04,-1.352892708775912251e-02,-1.659590201057269815e-02,1.498560747409986849e-02,-2.038233121478737545e-02,4.047157214933583963e-03,3.671235929609258097e-02,1.171324740826060369e-02,1.306362662497280057e-03,2.725089074938531492e-03,-1.284537259689975432e-02,1.041403534272930011e-02,-1.056017088736984320e-02,8.670881372046865612e-03,2.499404240523923904e-03,-4.650265214174735887e-03,-1.388662171529474534e-02,7.235562983843720972e-03,-1.444491553564694261e-02,9.663780244518582752e-03,6.673505545777854917e-03,-2.057944522043014465e-02,2.218011444935803073e-02,5.388884112111053983e-03
-1.648336167500712157e-02,-1.103224892187246869e-02,-7.971759311373527793e-03,6.250130014561836554e-03,-6.569576748864835308e-03,-2.821131611231998335e-02,-1.347861612433938830e-02,1.704887324599137699e-03,1.932150974469586460e-02,2.551289086861952080e-03,-5.641702919049761816e-03,-7.029174623367072817e-04,6.581651943821506187e-03,-1.632521920773485208e-02,-1.230159184754582753e-02,2.624433710441654785e-02,-1.208075608182635624e-02,8.481708764959430130e-03,4.500807585742584542e-03,7.706033023495453133e-03,5.584305016718958160e-03,1.766786935163198666e-02,4.406148783291156360e-04,1.201759509776774600e-02,2.419044430834643711e-02,2.345105293647429742e-02,2.834431700999811253e-03,-1.885988757359437868e-03,-3.275512216469864558e-03,-1.467912047208114017e-02,3.843937091391533625e-03,3.833382006213742477e-02,-6.292813574911262225e-03,6.984519825341847614e-03,-7.907630799126876345e-03,1.369679480169724503e-02,-7.993336646722625297e-03,-1.847225203463188567e-02,-2.080409985440483805e-02,5.769071925946792946e-03,4.974727032008892380e-02,2.612589478403215537e-02,5.864771840049794877e-03,-1.739603601272598013e-02,-5.130152314662758326e-03,-1.395796883770340259e-02,8.606002042611875583e-03,1.373404617602658889e-02,-1.922737452802108019e-02,7.809088976466149745e-03,2.305133870978274407e-02,-1.071857634106041478e-02,-1.831102010458262111e-02,6.508457801894556444e-03,-6.873557971122249213e-03,-6.661418760084800335e-03,-2.529373192471659829e-03,3.173557165845355271e-02,-4.977201603854112220e-03,4.208723505680939114e-03,-7.969475822620248132e-03,5.003094166823239715e-03,-1.314210019834066798e-03,1.459738227103316369e-02,-1.001484817127468348e-02,7.389974695843130187e-03,-6.857272655209579494e-03,-2.951320186033280432e-02,6.581258509683706251e-03,6.867957987576438217e-03,-9.714129035890880712e-03,4.559376592668914346e-03,-2.043498323363671793e-02,-1.149521469113288889e-02,-2.987388731908421566e-03,1.601458763021946369e-02,3.098521577963313581e-02,-1.084386804499559882e-02,6.044831009728788597e-03,-1.224059908597978363e-02,1.703593216031348834e-02,-1.041386660244215251e-02,1.564852228577770510e-02,-2.588747916413122740e-02,-9.611718756308127234e-03,-4.440414740827012402e-02,-6.959598541949919837e-03,2.013277373099052123e-02,-8.062268381452524771e-04,-2.717553267185516402e-02,-4.938600275019999070e-02,-5.078704284035332438e-03,9.343844870360122970e-03,2.271546685327703596e-02,1.445868443850601565e-02,1.176714938173651498e-02,1.746677690424766269e-03,9.450245213111640660e-03,4.714990322295178893e-03,-1.322407390412719957e-02,-2.185261504218180637e-03,8.296455352277127063e-03,-2.901879866598784490e-03,-1.969295814375150028e-02,-2.052468884483478126e-02,-2.399763137211035138e-02,-8.306362725116525278e-03,-1.875920617398922630e-02,-1.774276843730671419e-02,-1.512420976261207028e-02,2.678900689479030844e-02,3.503515494394775914e-02,-5.182355148083673396e-03,-1.052255067632792279e-02,-1.209238289782788890e-02,-8.037505381868757445e-03,7.011948588675253127e-04,4.662585279679829983e-03,-4.540027345427105621e-03,7.378801919194646550e-03,8.665652691066611304e-03,-4.069325233361561350e-03,-1.223572220816853892e-02,-6.062689601762856137e-03,7.582307832653699398e-03,-1.837061514997466102e-02,1.986670808926715992e-02,5.792774606358889848e-03
-7.426165383333164886e-03,5.053921685930339719e-03,-1.229871615072027947e-02,6.316431973133525106e-03,-7.483274914030509962e-03,-5.739246146912981711e-03,8.080543978976652275e-03,-2.629143194881473390e-03,-1.691992098773758939e-03,-1.239948071705709344e-03,-3.503017798019029093e-03,-1.748857420410338415e-03,1.800665140481595553e-05,-2.140119887942613583e-02,5.514857518641974599e-03,1.748603879329546293e-02,-3.488120374128188955e-02,-3.539123920059195419e-03,4.869502920495799754e-03,2.684417357651868938e-02,3.123503332092868092e-03,2.812104448934762621e-02,3.377535959013949936e-03,-1.150276754289400981e-02,2.159914007833418220e-02,1.566670988485108912e-02,1.857706123498713627e-02,2.945926621361362290e-03,7.515225993429653153e-03,-1.384666569790716194e-02,6.030966696583789366e-03,2.260216500018289235e-02,8.045749019196033261e-03,-1.563969804724431962e-03,-1.251582110148245428e-02,-5.363261620108896767e-03,-1.804196210936526504e-02,-9.773450485313165889e-03,-1.581808192675309560e-02,8.091669283985698791e-03,3.925799020060631583e-02,1.110028799175397617e-02,-1.853589526811416296e-02,6.992617014481504120e-03,-9.798328971082619077e-03,-1.219345554854626111e-02,9.806392701160118394e-03,-5.708391579420385095e-03,-7.635442050398170977e-03,6.517689676031486988e-03,2.543868637544339367e-02,-9.523225275408072829e-03,2.992089286456236629e-03,1.099930799628669881e-02,8.939150399743488185e-03,-1.787254717715827364e-03,-3.930888606268892298e-03,1.723845244905371915e-02,-5.012102069673872624e-03,-1.578290475844547347e-02,-4.287227218835498559e-03,-1.565162830009257655e-02,-4.630924661370470563e-04,3.330783363508842132e-02,-1.468743937343375446e-02,-1.909940625369202765e-03,-5.210167994689983081e-03,-2.910041501283274282e-02,8.187801916561758542e-03,-6.350995957018443563e-03,-7.150516820149996518e-03,2.645261563244204629e-03,9.119342120278086869e-03,-3.713189030653150577e-03,-1.198845371614956981e-02,1.525174543758194869e-02,3.075195945545633469e-02,5.251925984799126097e-03,3.192180432809848395e-02,-2.543965674706889779e-02,1.808327117569947032e-02,1.914941915719091392e-02,1.644677342285056840e-02,8.800269273759641145e-03,-4.162425560527897514e-03,-4.170413228674874767e-02,-1.914434127937500105e-02,2.129573499671467626e-02,2.921457767994175073e-02,-1.610721722225036054e-02,-4.509499720490953850e-02,2.943139130767206089e-03,3.362944957305516458e-02,8.954051788277706762e-04,1.012939202959218382e-02,5.278797431882907912e-03,-1.264748376429962115e-02,9.180119111949094999e-04,-2.688262968913869219e-02,-8.316103741979179523e-03,2.143586696929627999e-03,5.305955409203304274e-03,-4.934461262456205435e-03,-1.303548513766598048e-02,-1.881825681504331604e-02,-1.123030916533664797e-02,-9.785586513853580110e-03,6.874045002229248538e-03,-2.356854930138999396e-02,7.029330568928669233e-03,3.433135283707390573e-02,2.312759109636917942e-02,1.316783652078277501e-02,-1.552920074931390775e-02,-3.148480939507101398e-03,4.144054643335956002e-03,-1.061720193185178469e-02,-5.374639563292694239e-03,-7.906936705920959317e-04,-1.555099321221784306e-02,-3.826604771501302023e-03,6.010162432806827153e-03,-2.082375380151344282e-02,-8.692475384049691209e-03,-9.250973860710286906e-03,-6.022023635999697831e-03,7.242562054536653103e-03,1.735791499977721100e-02
6.831631377639846812e-03,1.428895666090547294e-02,-3.109079343438211733e-03,7.213454572214597106e-03,-2.611917869387768648e-04,-1.448184379492642448e-02,2.572408082194741451e-03,1.915718427066216223e-03,-1.124239781671017811e-02,-9.740333787104848637e-03,2.213292280159754287e-03,-9.617817093191255787e-03,1.054902233049215959e-02,-8.524464818426972720e-03,1.024157553775878297e-02,1.390624210853197602e-02,-6.142690016439743793e-03,-1.634678797474303086e-02,1.092887304647703964e-02,4.590501077545094261e-02,1.478204925852305302e-03,4.277234345590605162e-03,1.511679785183227503e-04,1.678474470243880926e-02,9.923771610927748996e-03,-6.102089435321339517e-03,2.433476753614256783e-04,-5.916133197002243146e-03,-2.679757378902794724e-04,2.181723061828170357e-02,-1.114524788456811542e-02,2.419219572381588537e-02,1.842659770033021338e-02,2.078339839332335806e-02,-2.099830933053574780e-02,2.499883073659254357e-02,-2.187748348663559605e-02,-1.575597318282872736e-02,-1.633305663904167926e-02,7.730195925123564162e-03,2.444048341974556712e-02,8.709687513750225332e-03,-4.744705023958043985e-03,-7.086655463295784413e-03,1.849176049084630359e-03,-2.610150083667218002e-03,-4.196220303283295684e-03,-1.366702536816455458e-03,-5.781397483088493439e-03,-2.949817962708799375e-03,1.239435513127245224e-02,2.142703019546875979e-03,-5.707771505043666115e-03,-3.451359420629356630e-03,-3.359187882480005761e-03,1.600494931065027035e-02,-1.611159272068946394e-02,8.658401227091615943e-03,-1.012495214342094829e-02,-1.189648770189603334e-02,1.091202809390638337e-02,3.315090781577288270e-03,1.972383811433546085e-03,3.216620861522121594e-02,-7.196559313934694155e-03,1.060333550998577255e-02,-1.154717041306646541e-02,-1.444720428986586563e-02,3.244763104974998646e-03,1.344257844088317735e-02,-1.372718392223387131e-02,8.761997185827707924e-03,-1.478662950190594468e-02,6.556223614574296747e-03,-4.751876760874143568e-03,-1.180543626825076957e-02,2.736611339941266707e-02,2.226654266906292340e-02,6.576085977761857333e-03,-1.790798641484030174e-02,-1.009516968844125645e-02,9.787290317260603778e-03,8.703039912020657867e-03,1.591107256918611670e-02,1.235669793245573224e-02,-2.852741504412543636e-02,-1.128837517059403175e-02,2.828326422063791659e-02,2.205072467919881943e-02,-1.207858763170719524e-02,-4.244946811487133181e-02,-9.505768524183800503e-06,2.579847926669267752e-02,3.459590150647901680e-02,-3.636386695696346150e-03,1.741732892711272962e-02,1.944222072612185369e-03,-4.804406619216270054e-03,2.803109720555811441e-03,-1.215764426006585991e-02,-5.896329324335116556e-03,-1.763445322631860407e-02,6.481521492364473482e-03,-1.125532763692257097e-02,-3.969950458247488434e-03,-5.514986632677962471e-03,-2.244300646912242292e-02,-7.493396888060503865e-03,-5.229391923005573782e-03,-1.981640306982036803e-03,1.299765566798491943e-02,1.994396068579820658e-02,-1.689856131957372457e-02,6.006699281327343258e-03,-5.390445236840707421e-03,-1.098240050207882103e-02,-1.388405210820952383e-02,-1.153517684357135455e-02,3.874218368505559095e-04,4.183602342345864138e-03,5.025665917970805613e-03,9.125038356461306899e-03,-1.056019182848986875e-03,-1.920141024606871871e-03,2.021250356922095167e-04,5.825377456545413092e-03,8.081209352908010762e-03,9.598186310692796014e-03
-1.171080244496874173e-02,-5.016358443956763988e-03,1.280879616418998702e-02,-3.697476030194335201e-03,-9.158266713195228545e-03,-2.630519661019297024e-03,-1.081470896098356803e-02,2.060518462623817104e-02,5.964571301524052363e-03,1.357009567749129474e-02,-5.999520088621436084e-03,-1.847521882347528954e-02,-3.675556513232723643e-03,-7.066784517999012173e-03,5.106400300373813150e-03,9.605245123784763792e-03,-2.305505509389845636e-02,-1.073829457523881037e-02,-1.104399377866523060e-03,2.839832501495934483e-02,-2.718958305595044114e-03,1.063046709269523972e-02,-4.763114232681536948e-03,3.707859241686157180e-03,4.077417765506827045e-03,-1.797043879342816175e-02,1.325205900669900773e-02,8.957495444311532008e-04,1.147655404188384007e-02,-6.090558266260884257e-03,8.091197330031526039e-03,2.083361667135845072e-02,-1.830291172923213111e-02,6.098030385246006914e-03,-8.129464789998125385e-03,3.390858241828903757e-03,-1.589219435177337270e-02,-5.752959666724012135e-03,-4.463816101956025011e-03,-1.767253251232137837e-03,3.573875735131222531e-02,6.353958863710300158e-03,-1.622327427772945986e-03,2.393604983309429238e-03,2.714974839764193720e-03,-4.424150649778963232e-03,-1.053564090654377471e-02,5.272883292770509135e-03,-4.920000439654602549e-03,1.357093773849448078e-02,2.356716612257686583e-02,1.003181999744783177e-02,-1.296598269479602196e-02,-1.851768410701396883e-03,1.319217705506589913e-03,5.653006301407409364e-04,-9.979336846693796781e-03,1.395473877297978907e-02,-8.114844342578409614e-03,-9.347474943115352888e-03,-1.074512422665090464e-02,9.745915077040388785e-03,4.528420366728889458e-03,1.137095737111033442e-02,-3.078361861817877857e-03,5.221604455659690017e-03,-9.306468939697729384e-03,-9.150994243776012366e-03,-1.498497726705247390e-02,-1.464427489463122553e-02,1.241045430142275439e-02,-1.016697767455142232e-02,-9.989029570744193624e-04,4.201300867121484685e-03,2.630025552894829123e-03,-6.952122464635807943e-03,2.203542661620436910e-02,-1.180620033343022200e-02,2.861221993097254335e-03,-1.200542569538428500e-02,1.634171013336915487e-02,5.207004732444307782e-03,1.592530348424927092e-02,9.415281538300282124e-03,-1.409032615069430623e-02,-1.975205891306777359e-02,-1.808992170600729876e-03,1.202982875469832749e-02,2.267973561939062507e-02,-2.166638982654508355e-02,-4.363961155860855007e-02,1.628148961392255831e-02,3.191263814474411264e-02,1.174168545631709172e-02,-1.155472228629978587e-02,1.874221650456743549e-02,-1.203172233517580021e-02,-6.883960880238031502e-03,-9.321802266758045033e-03,-2.697854230109704432e-02,-6.066757292800850285e-03,1.456379752204273008e-02,-9.012744841788065085e-04,-6.004998699144036174e-03,-3.568730023625034213e-03,-2.750620702187119709e-03,-1.309715758192530818e-02,-1.620732436567350054e-02,-4.843248103962202213e-03,1.668302394509571171e-02,6.823695925952317706e-03,1.892205122905817744e-02,8.763598669299517765e-03,-3.047201777297154409e-03,3.447984562221202004e-02,-2.161996018803201414e-03,-1.215607297828726237e-02,1.103538052270163806e-02,1.336982403819197973e-02,-1.104880484752721612e-03,-3.384440337806201692e-03,6.878132557372042960e-03,-2.989520270197849536e-02,-9.549299606268685237e-03,1.698654607776613895e-02,-9.589165215824422758e-03,-3.042211814819967535e-03,-7.924957186364233125e-04
-1.110926999743584720e-03,3.530568580437101148e-04,1.150631390126272309e-02,1.568796088009200007e-02,1.478066231809005600e-02,-4.264528867065851478e-03,7.412126988762383385e-03,-2.757016006537052304e-03,2.604982499532977527e-03,-5.233582368527431306e-03,-1.491233131520200775e-02,4.297905012562190305e-03,8.998531504801104280e-03,-2.158237194638444253e-02,8.335191346893812761e-03,3.764674813821221322e-03,-3.760587811832712731e-03,-1.602817507506371000e-03,1.330173460006724498e-02,2.743164053271912248e-02,-1.310669994961233611e-02,1.979907312070029388e-02,2.627735185227196395e-03,-6.993818518934395842e-04,1.878930800332045264e-02,-1.277113121124022997e-03,-3.097723578148221715e-03,2.946559641925134213e-03,-5.314539943108189703e-03,-7.474356696055556651e-03,4.251360413776246808e-03,-5.237341693264538562e-05,1.094832461177916612e-03,1.541948543683337169e-02,-4.745905582106262413e-03,-1.116231128835388706e-02,-2.672091764155990964e-02,6.476803706926109174e-04,-1.462063370070992331e-02,-1.258873389692080451e-02,3.346418791268024329e-02,2.018876676687490768e-02,-1.366422243463483698e-03,-1.473348345385965506e-02,4.832438560629006424e-03,-1.165903852384363344e-02,1.075601732764082559e-02,-7.834175139164664681e-03,-1.372429774440665946e-02,-4.309336111999409295e-03,6.112472229865921741e-04,-8.772496922845865117e-03,1.125389883748132216e-02,1.671962623671451736e-02,-3.861984265641402701e-03,1.148253038689895332e-02,-1.146571302660286812e-02,1.325615469793687412e-02,2.293638396305236970e-04,-8.744332984055453936e-03,-9.986912645029013408e-03,-1.176606931778165915e-02,7.530413862125285782e-03,1.567465263890321578e-02,-5.626588980098906623e-03,-1.083930886577112729e-02,5.016269446766362904e-03,-1.497232434621257116e-02,-1.399592476263525429e-03,4.261995775643618103e-03,-6.990423175332751739e-03,1.178853821179733433e-02,-1.994362846393224475e-02,-5.925143803295304309e-03,8.424729336672650420e-03,-9.196912428948811162e-04,4.387645866113237120e-02,-7.948792917528629126e-03,1.693699855267552859e-02,-1.006253861463403745e-02,3.329195643891986328e-02,1.739453570865887033e-02,1.437137184482984407e-02,-1.821321889892627346e-02,1.052529989605722853e-02,-3.769400716643533239e-02,-5.037438253868797497e-03,2.278548442308226882e-02,1.977158368081449388e-02,-2.212792791540999990e-02,-4.694560763018298249e-02,2.314278016982493011e-02,1.073147726371668532e-02,3.021063576225374234e-02,-2.412739911769060542e-03,2.206825845210298731e-02,-7.331684893401604203e-03,-1.857837460602022981e-04,-5.114409910013269916e-03,2.397639118545195208e-02,1.258081623334720602e-02,-8.558452707654066668e-03,-8.337972918737135766e-03,-4.123452787267538160e-03,-9.439900171483200236e-03,-1.092812527013843626e-02,-1.274834501639365500e-02,1.308070461539995351e-02,-9.819700540268355010e-03,1.152882513085495136e-03,1.928849623188760160e-02,3.399997068801154099e-03,-3.276659751398270769e-03,7.079089463645115571e-03,1.514235470686426700e-02,7.755296518277026395e-03,-2.672962304362368723e-03,2.576471178302520287e-02,3.856431621050154454e-03,8.561134696986339929e-03,2.628555374505428706e-03,1.426325070198988278e-02,-6.562453279673405304e-03,-1.770723026187069529e-03,-1.456947507605649283e-02,-8.911621230853613781e-03,1.643068406750739776e-03,-6.259994235522792737e-03
-1.052948304561239154e-02,2.169336083954182676e-02,1.653905841320368192e-02,-3.278509865571419424e-03,1.997644567461505545e-03,-2.424582837683600042e-02,-1.503986042377851613e-02,1.531905234434088187e-02,-2.768271089864604790e-04,-1.325573269458283840e-03,-1.111210641686994488e-02,-2.974173554612084651e-03,8.679336035411280847e-03,1.605886661507463281e-04,-9.293930633958337809e-03,2.223696051169006885e-02,-2.719633823967841646e-02,-3.925449210639878929e-03,9.423711505614124767e-03,1.511731366245862122e-02,-2.792528365096009265e-03,2.203215615523288276e-02,-1.523850221171354873e-02,-7.892860071534182898e-03,1.418877154198755833e-02,-1.419123314613093649e-02,-1.444224626352838201e-02,-1.364071563415790271e-02,-1.232601291366140425e-02,3.947854592984899672e-03,-2.062557686997315565e-02,1.621818919116257626e-02,-4.750361114263105741e-03,-1.651005597833387836e-02,-1.245898860560827257e-02,1.291654368766974662e-02,-2.065594153886675041e-02,-8.607216120879545088e-03,-2.093702924134716731e-02,1.329823087382523902e-02,1.978415468629018611e-02,6.682407222365211981e-04,6.947251961299331577e-03,-8.573702339404191269e-03,1.020190143115063015e-02,-5.137079095883859137e-03,5.765888280697041395e-03,2.734728860573976301e-03,-2.065291440230173844e-02,9.799112566395984381e-03,6.948425146503428356e-04,-5.181757155897438646e-05,-2.717054405797606279e-02,-1.058173533385502879e-02,1.417778438197745891e-02,1.293395731922856876e-03,3.026339906973783689e-03,-1.832447074301293138e-02,-3.345093214851003246e-03,-9.700030754045624662e-03,1.788201111998800191e-02,-5.721025975382112994e-05,-1.483479902724465019e-02,2.622968962224124859e-02,-2.375468956996649658e-02,-6.995103683052407081e-03,-7.145733409996711527e-03,-2.109808281556865492e-02,1.030047956105797262e-03,-6.056020003852905474e-03,-1.282461453753787166e-02,1.283911336069402595e-02,2.899064944459654042e-02,-6.577490402177913441e-03,1.590423896405110176e-03,-1.929949171642817178e-03,3.930380013081585105e-02,-6.369141627451608938e-03,2.385137184994522846e-02,-1.593428922977379800e-02,1.813274763361405820e-02,1.086561834735558577e-02,7.873481187924694568e-04,4.420525035879595971e-03,1.094996000519805023e-02,-2.807079319347042731e-02,-4.485685144779601174e-03,1.805389639219725714e-02,2.257504561049418837e-02,-9.829145196962586067e-03,-3.118953837140261975e-02,-4.342541863674004819e-03,1.691880974980769156e-02,3.332618083362203637e-02,-3.147031362472141498e-03,8.717533157494468388e-03,-5.195675388456995813e-04,-1.340369254108862425e-04,-4.697547156356540396e-03,-1.438148233443729482e-02,6.857912875628539157e-03,-1.854357592450632530e-02,2.957224595472561501e-03,9.527810521663597140e-03,-4.347540735535217367e-03,2.119401942066127288e-03,4.425553291805720685e-03,6.130069407964851280e-03,-1.497199201221801820e-02,-8.860488295307318227e-03,4.853607956496638204e-03,2.788899721318073566e-02,1.180318319422220437e-02,-1.289996916391251795e-02,3.485891726172751347e-03,-1.083730232771619277e-02,-1.653957780768453706e-02,1.647793394955737734e-02,3.642259172501888763e-03,-3.867871784388363446e-03,-3.829310935266940115e-03,-1.274016699675893996e-02,-1.319166885795728175e-02,-1.283242192815991708e-02,3.375624951282326161e-03,-7.700183014429803040e-03,-5.631986292681114871e-03,-1.963553023850837798e-02
-8.761166696049281499e-03,1.942524570948749030e-02,-4.163976365204308423e-03,-8.604710790337985818e-03,-1.032984281353853916e-02,-1.508817503561881183e-03,-2.692877070573251007e-03,9.254864357984280906e-03,1.324259258763049209e-02,1.395756883556942187e-03,7.561250185622580069e-03,4.989175677785579605e-03,-2.103634466471499941e-03,1.226271628203097659e-02,1.207642149752104904e-03,7.785960843413589592e-03,-3.074104150201415354e-03,4.680183399157962845e-03,1.321443579008639568e-02,2.718666540890382274e-02,1.567712275793203998e-03,2.960797395244299871e-02,2.416399905718503299e-02,-4.836401545399493518e-03,4.056856326881893259e-03,-5.084901605233543148e-03,2.290195504634723843e-03,-5.191480948821113744e-03,-7.987865454034924484e-03,-2.280116110638000931e-03,-1.455434791813253574e-02,1.730641608391587580e-02,5.955446250355327055e-04,1.294094009425543999e-02,-1.930795876818977228e-02,-7.002157320266287838e-04,-1.457467185924635027e-02,-1.270407990584848830e-02,-1.498196993955235902e-02,-1.279666641527071186e-02,2.791534781460431811e-02,1.228581084001033157e-02,5.344316886530101930e-03,-7.858627125316533166e-03,-1.229400089751038656e-02,-1.471158791348292465e-02,8.366658408242062459e-03,-5.482180791012192939e-03,-5.941595658623703355e-03,7.608366144026754152e-03,-3.185796021054821368e-03,8.283021053679623033e-03,-1.628555817861264410e-02,-3.149217091288569314e-03,1.396982521346287059e-03,7.008322810823234064e-04,-1.380273115763775219e-02,4.152363830062713070e-03,-2.528857674252393134e-02,-2.381481636142523950e-02,2.063361441685417508e-03,-1.041684741192864735e-02,-1.356672805216134134e-02,3.212755786144923936e-02,-1.781009254619382240e-02,-1.029574558787813010e-03,3.679078818353945929e-03,-2.082672105311255198e-02,-1.246317364426144381e-02,-3.527498329364233808e-03,-3.405182376048942940e-03,1.089196232430846706e-02,1.925991675627443389e-02,-7.498870953902423558e-03,-1.798597671618482703e-03,1.029816607371473883e-03,8.498689901334878505e-03,2.547700744633736472e-04,3.263051808266072967e-02,-3.146205917116385448e-02,1.932368628929245422e-02,-7.643595948743397202e-04,-1.556836772406839688e-03,-4.029305430674522473e-04,-1.075910201420044593e-02,-3.881633405802765308e-02,1.198593568009809381e-02,-3.160659773575730074e-03,1.357922988967344251e-02,8.603584051162243987e-04,-4.653304683493792587e-02,1.065185382181493487e-02,1.464102032366713414e-02,2.138492397066203698e-02,2.281100391746610292e-04,2.026480427804905338e-02,9.913173586021705938e-03,-7.481639899427148209e-03,1.156853774627354149e-02,4.057849445297477802e-04,-1.424370485162535470e-02,-1.121489230059590468e-02,1.009940560473781071e-02,-2.053164378305301265e-03,-1.038523968925929818e-02,-7.139561851532244020e-03,-1.016589037513628349e-02,-7.015752192443166536e-03,-4.260893940176989185e-03,1.389280822116244337e-03,2.894187353882116814e-02,2.864117536914577433e-02,8.837174133142429748e-04,7.700708952679317064e-03,8.393132668891935960e-03,8.207948872030428403e-03,-1.128021169025816015e-03,2.126736196151812752e-02,3.106975756967541268e-03,-1.267832214330923005e-03,-1.135649501171530004e-02,-3.918926492831910358e-03,1.496949995616501244e-02,-2.106369532313772785e-03,-8.619512229784652424e-03,-1.126360905858291017e-03,1.137613750478166930e-02,-1.020867845148346878e-03
4.246583655651898939e-04,1.365092821617925126e-02,5.679430376553127290e-03,8.303184684878949905e-04,-7.119706833393793163e-03,-2.958139168093619140e-03,-1.518173848980943971e-02,8.804182307766963902e-05,-1.497763589423612568e-02,-1.343269093597508883e-03,-8.881456508186320528e-03,-4.542014108276200106e-03,2.036714795546561499e-02,-1.055398852133662864e-02,1.087364678667702110e-02,2.204474151645938532e-02,-1.694462824315932231e-02,-1.228195708520448196e-02,1.641742616798476037e-02,2.879250723348904598e-02,2.544499155196375696e-03,6.895047153740606685e-03,-3.500893715359944605e-03,-7.399884432697722940e-03,7.919930056205509369e-03,7.035674370166895841e-03,9.240202563792291809e-03,7.434424533563001314e-03,-1.013344752760981030e-02,-1.200187105240984285e-02,1.104853336036266086e-02,1.790289613507905012e-02,-2.593897290400893826e-02,-1.211799626296736210e-02,-8.077590838855754768e-03,1.159107972893164140e-02,-2.056862738580219827e-02,-1.635241530064633977e-02,-1.906990723007249283e-02,1.185023468895838802e-02,2.730319075154262823e-02,-1.842935236368578762e-03,1.234937090671496020e-02,-1.850240148015228720e-03,-1.590235129865646838e-03,-2.655760790973548877e-02,-5.112945042811339142e-04,5.635188827999309050e-03,4.071790923196922166e-03,8.235151771686811256e-04,1.439429784232971153e-02,6.448422006741057894e-03,5.768773141384538235e-03,-9.165232769735423557e-03,-2.175827448652836640e-03,-3.181163350230239648e-03,-1.843707457772273631e-03,2.889366348775685833e-03,-3.372836043419563234e-03,-1.784836117346544349e-02,8.087143642962164175e-03,-1.665849478717086954e-02,-1.717167584709136663e-02,3.020200719521075675e-02,2.520848719424608007e-03,-1.246855119489890217e-02,-4.037254159853894547e-03,-1.193837479563041731e-02,4.153475843891521880e-04,-1.615809940859664652e-03,6.758978981716613939e-03,3.723560509530513592e-03,-2.506257014676360403e-03,1.157392647797176807e-02,-1.436431127805120299e-02,-1.915571338615914415e-02,1.356281134681111902e-02,-1.364924634903152446e-02,1.499034160475878202e-02,-1.841613593385775863e-02,2.035818467700148751e-02,1.968041921105855019e-02,1.019858286842361371e-02,5.104279699883424413e-03,1.586188834472132981e-04,-3.611091331852381986e-02,-5.424765765914675228e-03,3.146418793354906207e-02,1.971672876692614693e-02,-1.020235204321362108e-03,-4.805136643676336666e-02,6.708264290257983688e-03,3.392041223033639974e-02,9.645197131836256640e-03,1.130588860645418380e-02,3.808478452239642126e-02,-2.812904360293688299e-03,-9.777382212767181738e-03,-2.093463642243724096e-02,-6.571572214784898551e-03,-2.273594439343021648e-02,3.717166708793604151e-03,4.913453072560385569e-03,-2.519878725619787568e-02,9.712822236019357999e-03,-3.803530994907323472e-03,1.260412939757402572e-03,-4.164468431698323085e-03,3.090972080416744001e-03,-5.959673809411991825e-03,1.313111712345026681e-02,5.914661091537363503e-03,-4.599892032528414380e-03,1.691790797804378771e-02,-1.519702208156725395e-02,9.292316435030508262e-03,8.148234736821640886e-03,2.431994897776335735e-02,1.197898910610359705e-02,5.414950760854179111e-03,1.911896320404865568e-02,-3.765713825305168783e-03,-4.362256731975407489e-03,-1.072447162368106791e-02,1.403992178963996834e-02,2.742836931064230720e-03,3.587217029288860149e-03,-2.936583825409735341e-04
3.647810615106695641e-03,9.419264173203534957e-03,2.311906607379702466e-02,-1.110246085537953085e-02,1.125919995449079294e-02,-2.442564879584295176e-02,9.839425467584983487e-03,-1.988385012100669490e-03,2.385762944415058262e-02,-6.050132280301514587e-04,-1.049105357440470107e-02,-1.770870312152620502e-02,8.884315454939239326e-03,-1.527302687839115179e-02,7.829065610298509281e-03,2.452490193784130287e-02,-3.358866722724725400e-03,3.258644533474130099e-03,-6.455925633505035267e-03,1.530441430531579057e-02,-1.173602577357778926e-02,4.258674219460205704e-03,-1.023904537826121793e-02,3.654152135036604215e-03,2.741473668399585506e-02,-2.610066081829384710e-03,2.245970755032810056e-03,3.585859141809812425e-03,-1.119587944250778448e-02,5.850839356232333602e-03,-1.814977297674130741e-02,3.684619866877537897e-02,-5.950224896180242480e-03,5.232819995016634723e-03,4.757602872535668381e-03,1.762270636910696301e-03,-1.236507009846172199e-02,-1.858010376433812463e-02,4.436731802320323208e-03,4.260467529686546781e-03,4.525722885608947366e-02,1.693935101532416387e-02,1.106859645764160169e-02,-2.123468280119060816e-02,3.453871629860354869e-02,-1.033818743277390394e-02,-3.560749152742868472e-03,-3.994803891800745993e-03,-1.527405712376283219e-02,-1.328015244137107330e-02,1.323861556132258609e-02,7.593770667328875873e-03,-2.382929901741574763e-02,4.009736977989408931e-03,4.678053702082915835e-03,5.092409069070476767e-03,-2.293455776732901755e-02,1.253140355945627990e-02,-7.094572901625856819e-03,-1.965094528250563993e-02,1.468293057013097397e-02,7.787201263107751403e-03,5.703593118838692216e-03,3.220890939950513815e-02,-2.824212290211279910e-02,9.050410998987906339e-03,-3.654105587336511831e-03,-3.565128368843131085e-02,1.806458166424547776e-02,-7.294870438987004040e-03,5.655424021017170684e-03,1.331728865961031086e-02,6.386264138098969763e-03,-1.222987077622926348e-02,1.494825621437664842e-02,-2.407545154751020849e-02,2.405890359729964678e-02,-1.110080713207695254e-02,1.723626718039932004e-02,-2.895299467964615805e-02,9.424915344130029016e-03,1.991076556181241297e-02,-2.768173841249871488e-03,-3.390690230860973590e-03,-1.249231592776771198e-02,-2.534953200213330496e-02,-8.589689983285549515e-03,1.913271170326704892e-02,1.880664905629006803e-02,-7.009295429783480962e-03,-5.087779448616209371e-02,1.148347155648006893e-02,2.907163629078241343e-02,3.303918176671259005e-02,-4.974034659673685910e-03,1.585850582406278519e-02,2.835759556229957689e-04,1.347314202344063183e-02,-1.135772299880532903e-02,-1.469820820977941339e-02,1.292854693240142773e-02,6.125316708698830964e-03,-1.506649267406406055e-02,-1.604843393443471545e-04,-5.807933899152686701e-03,-1.982251913642623167e-02,-1.256932968105563264e-02,-6.717711095736123364e-03,1.280117670491338899e-02,2.839624788813051130e-03,1.418837328104704566e-02,1.528241319395396260e-03,-1.335968201885457882e-03,2.705710623500613612e-04,-5.439663546839973440e-03,-2.355334182206345224e-03,-8.665363869188194221e-03,6.764337475176616411e-04,-3.816004670111669723e-03,-9.166390321892476170e-03,-5.086029400674967754e-03,-3.390810637786667841e-03,-1.827921401407167287e-02,-7.416317585948947744e-03,1.944941138568444944e-02,-6.014190388561833737e-03,2.048555571940949976e-02,1.021351451243471611e-02
-1.117552643511432811e-02,1.289583564485982312e-02,-4.591477357708584166e-03,-7.772634840888535505e-03,-7.086591138312140978e-03,-3.112462572781140094e-03,-2.664008619413720663e-03,2.306876595750973966e-03,-1.683624699279777717e-02,2.905687226566506121e-03,-1.175682191604203106e-02,-1.728311779443737588e-03,-2.075112104312297565e-03,-1.367455291394908783e-02,3.584366264909617534e-03,2.183318890100587918e-03,-2.595353569291376783e-02,7.449115081718519181e-03,1.126141403306482602e-02,1.140331960061128670e-02,-2.137514666836126676e-02,2.319702267083358430e-02,-2.404852762538742510e-03,4.131870643003313949e-03,8.215754098446012219e-03,1.607823830931789987e-04,8.982315795287814167e-03,-2.654445032919763880e-04,1.002868465900523705e-02,1.588088588315463359e-02,-2.781715658835099358e-04,2.750116951425568904e-02,4.215541833031507223e-03,6.796645735816293776e-03,4.818127705600626712e-03,6.470838678885653013e-03,-1.832620430477755261e-02,-5.225863114877714842e-03,1.986832514097333288e-03,5.017206570457125731e-03,4.609035153815622954e-02,3.015732977653576286e-02,6.435510805015368790e-03,-7.150655030454410380e-03,8.276462808958452363e-03,8.740577194061677560e-03,1.059488344959380862e-03,1.267005776063515055e-02,-1.758059734683290951e-02,2.380548096722924500e-03,1.116832260712797252e-02,1.685903220370327932e-04,1.097259161749874730e-03,9.663422928035431125e-03,-5.610986394550565928e-03,-2.946286313617824636e-03,-2.012709032253004807e-02,1.696119045542530956e-02,-8.040849139751893304e-03,-9.349558945354647863e-03,-4.917053842043339791e-04,5.491424123708269064e-04,-1.428888388269913476e-02,1.383713856544864854e-02,-9.583873058925123159e-03,-1.286582432857849567e-02,5.768879005261659358e-03,-3.630125961838608778e-02,1.886806574587535784e-02,-1.039511178708457662e-02,-3.391483367203213407e-03,8.527603756791572037e-03,1.086562256969877786e-02,-2.251549906763336550e-03,2.950555228783241588e-03,5.335529383510854897e-04,3.329870025631379710e-02,-3.901306502897832103e-03,1.774712913753112575e-02,-7.867347419357561059e-03,1.450058502088885995e-02,-2.235148492314480845e-02,1.164876494951322915e-02,1.587040737717660896e-03,1.793504813076126573e-04,-4.098314011405260887e-02,-1.166404497967068630e-03,1.267859570302159664e-02,-1.957022238580550383e-03,-3.627878983621605786e-03,-2.229292899561594390e-02,1.927838778419360515e-05,1.499552383271521121e-02,2.250543792035060442e-02,3.811122408868340347e-03,1.589821912060761927e-02,-7.819183346288715100e-03,2.394283870300970701e-03,-1.570138480085517957e-02,-1.633544457994489524e-02,7.529920367199360171e-03,-1.084636644860593503e-02,-5.142748238749331006e-03,-1.678446181222571776e-02,1.460061085203555147e-02,-4.454648282762580132e-03,-3.096310270788639029e-03,4.229198130530657448e-03,-9.812551862082092430e-03,-1.019905584850613021e-02,1.702944819359018813e-02,1.485680812857077641e-02,-9.415955106905524521e-03,-6.863434353482437619e-03,-1.321205917143334664e-02,1.458265096364516102e-02,-1.389320478213823713e-02,1.297142691554885145e-02,-4.227532267577462782e-03,8.036328075418694428e-03,-2.310081375450696514e-02,-1.944540617379812665e-03,-3.303569705623398810e-04,1.030236584971736544e-03,1.285693534188171033e-02,-5.697225439690349440e-03,1.017062088069694767e-02,1.050666859171262707e-02
-1.828772172456863410e-02,-6.041390164283609067e-03,-1.120747960757599755e-02,9.395892775769224339e-03,1.358010737838147297e-02,-2.211125779423301838e-02,-7.879406786525704415e-04,9.900352965451815132e-03,1.004360929351965671e-02,-7.421765561233132160e-05,-5.947683233402523487e-03,-7.281877394531798692e-03,9.418512598798018526e-03,-2.434614713365967735e-03,-1.096189955207952337e-02,2.001095805847542472e-02,-9.428366714731323261e-03,-7.556020279632970089e-04,9.135117417724523698e-04,1.353789040497641212e-02,7.750925938255940478e-03,1.921792753396616912e-02,6.546013950111167524e-03,8.343853793683941519e-03,2.222885942530312270e-02,6.269721796392630463e-03,1.957315599797845862e-02,1.306722494293529636e-02,5.142588828841684542e-03,-2.327502066107747271e-03,-1.134612358568339897e-02,1.328246254352249967e-02,-1.324089456364550832e-03,2.531665062702704097e-02,-3.392312127873179685e-03,-7.260076069221147767e-03,-2.272538311449362122e-02,-1.816177631207545676e-02,-3.724799852509464056e-03,9.424483182490044769e-03,2.436213055716757517e-02,4.517881859333393313e-02,-5.820004722357277876e-04,-1.216132295965316468e-03,-6.170673472935960142e-04,-7.020279786837151786e-03,3.423202028044902093e-03,-9.160604676542696140e-03,-8.545566968094114521e-03,1.071710708704909712e-02,7.256359565405761693e-03,2.088992669228905211e-02,-2.981547669591528248e-03,3.607705740579864907e-03,9.918198377302126639e-03,-1.649463341516105644e-02,-9.260015325030651612e-03,5.286652981801564719e-03,-1.720696098819202158e-02,-1.426063876423326431e-02,-6.942272426047112720e-03,1.651901484114950622e-02,-4.360410745371350906e-03,1.354348180785448427e-02,-6.218940368129970142e-03,3.556118846818271794e-03,-1.002962604800663581e-03,-1.288437666408558460e-02,1.395789442527126806e-02,1.754290616337006534e-03,6.039745044025005873e-03,6.598091744715902165e-03,-4.846228960136007326e-03,-1.284645457447976431e-02,1.032971259150068958e-03,-3.265712962382833189e-03,2.790453684380769100e-02,-1.104046749419347086e-02,8.428287693233463274e-03,-1.921096673019870651e-02,2.215486940938376018e-02,1.555251011886985349e-02,1.373060938929160195e-02,7.117477046896093437e-03,1.818486232755952767e-02,-2.282460731598954726e-02,-8.833829170486319146e-03,1.726813626093104750e-02,4.324250179311603381e-02,-1.949945061128628004e-02,-4.518804883649526344e-02,1.884855061293736964e-02,2.737712405026093351e-02,9.949427800773147715e-03,-1.210133547456954074e-03,1.190708460121862877e-02,1.039754281754530323e-02,1.150387724050207575e-02,-5.211263963885186994e-04,-1.512799523265115006e-02,-7.575104652659569657e-03,-7.709747606023622211e-03,3.943894496854559971e-03,-1.566059995908116939e-02,-2.106415161046304050e-04,-2.399126670387780567e-03,-2.366402078268207976e-02,-4.762725661963373644e-03,4.500129461166683248e-03,1.168238801560050021e-02,-1.013741562773745651e-03,1.142614663334127166e-02,-1.449679889264255880e-02,1.542194626733419012e-02,-3.731303473412803367e-03,-9.766243833297159546e-03,-3.858652522500127802e-02,-5.655143278291705281e-03,-2.020478390619740144e-03,2.671810588172624911e-03,3.115270772124901187e-03,-2.005479377392954676e-03,1.191044336002292439e-02,-2.365226766425140500e-02,3.540945163530583376e-03,-6.692217886563351682e-03,1.968162593166154078e-02,1.729262870190295329e-02
-1.146913569690563686e-04,1.024799784639640610e-02,-1.093108284214223090e-02,-1.026554333911202342e-02,-1.211485882012056613e-02,-1.790595037985228885e-02,-2.719404452983845231e-03,-5.934235027824967534e-03,-2.881226368933800797e-03,1.049155234151644654e-03,-8.539527505840215083e-03,-3.166490011809904720e-03,1.091401311049830514e-02,-2.684966867199281917e-02,1.944095152643358915e-02,7.568281279825636240e-03,-7.842248645057787364e-04,-4.806578559447626832e-03,1.335188882092267632e-02,2.109161439492710996e-02,-1.074209773655843657e-02,7.101126502202121174e-03,-2.489673005921103424e-03,-6.508321820992321941e-03,9.064865875258469943e-03,-6.851907730623431076e-04,2.673505129233377754e-04,-1.817335533016095628e-02,1.269047182374806459e-02,-4.194068048103991725e-03,-9.655806510870298606e-03,7.295087667594544328e-03,-1.079334632463481956e-02,1.637276957358435939e-02,-1.366313090297726143e-02,8.908065819982543404e-03,-5.150634903868121263e-03,3.886710669224492914e-03,2.650813890825128201e-03,3.372224620424169560e-03,4.744065695425092599e-02,8.276753077098105219e-03,5.987908463550878791e-04,5.374597739375789815e-03,3.020788920599109389e-02,-1.321848634934863313e-02,-2.190010749857083158e-03,1.712018154894464836e-02,-2.325237222725040197e-03,-9.932193706112245682e-03,9.362814047017801664e-03,7.692014059130330463e-03,-1.289555978400887259e-02,1.414065325395780920e-02,-1.478779338818254560e-02,-1.094294611994709419e-02,-1.416387086567122075e-02,-7.775457887789554920e-03,-1.586970394434293261e-02,-3.024486638832369484e-02,6.813097539233130100e-03,7.033031910703900448e-04,1.121261883496429274e-02,2.029186739963113016e-03,-1.429852434844260285e-02,4.041377438363360011e-03,-6.386098909122213049e-03,-1.295367330661059344e-02,-1.179849638838962591e-03,1.824268852115889378e-02,2.918020345780493550e-03,3.136846665395255597e-05,-7.153865796324493896e-03,3.795462181785040894e-03,8.190225940354319348e-03,1.068156477176993892e-02,1.004636031396263091e-02,-1.750832288919820789e-02,4.463489227052881009e-03,-7.499460327418743487e-04,-1.055314617765190296e-02,9.437118255382147269e-03,5.839541280052053772e-03,7.182044529569690458e-03,2.005862076921808429e-02,-3.407230858745100704e-02,-2.287101945955335482e-03,3.037578758041120652e-02,3.163515074513384429e-02,-1.294400972960519161e-02,-4.341273981706133406e-02,8.720274991619873101e-03,3.743070255386143907e-02,1.066371363864822806e-02,2.389178738385397578e-03,1.277004936135699154e-02,1.276270567787410500e-02,-1.955651795902043147e-02,-2.254015040718848270e-02,1.338662749986294651e-03,-3.941664887199094677e-03,-1.737889186051030932e-02,1.110129657072759894e-02,-1.080177441586438990e-02,4.527456299584642699e-03,-1.744866103027475565e-02,-2.360034488082028703e-02,-3.534759215276600097e-03,-4.519368446778879687e-03,1.036694046705932204e-03,1.472841862602611122e-02,1.193692890835646413e-02,-2.075872373939617859e-03,-1.539080805371547192e-03,-6.935752056578883828e-03,6.860631746322576503e-04,-1.203327329662776633e-02,2.467326653123846393e-03,-9.547630257262380138e-06,-3.709147023999346659e-03,-1.847966698022399448e-02,-8.324091404036124478e-03,-1.247999274987949062e-02,-1.044116455404430974e-02,-9.119110186699506265e-03,-1.733675742014979468e-03,5.245260165913986396e-03,5.318880807554145738e-03
7.402133910162704729e-03,-8.192989676266947412e-05,6.993236104604138616e-03,1.416645794608179486e-02,7.451996561410125647e-03,-2.346240224597747823e-02,-2.430780461523120942e-03,1.605192459074809147e-02,4.431795640218651189e-03,-6.274679285867265643e-03,1.402286174907293320e-02,-4.266902793493564626e-03,8.077630922704987643e-03,-7.741466269854836192e-03,-1.004977780828054772e-02,2.035634581717635574e-02,-9.907392156378425074e-03,-8.720545180164452487e-03,1.688283933220037004e-04,1.924822879190736177e-02,5.940141508453078596e-03,3.220395077054556687e-02,1.228237236055435043e-03,8.824119750208728533e-03,2.644176546076240641e-02,-1.518773636070288452e-02,-2.035594601467787413e-03,-9.947299285029397378e-03,-3.838604772310714314e-03,-1.210466520070822317e-02,2.270486424038528628e-03,2.402039396654821399e-02,-1.209455007851594453e-02,-5.307583506281949789e-03,-3.778530026937302645e-03,2.335255742485155880e-03,-2.145483974812412500e-02,-1.238215434379058393e-02,-3.363553341018172063e-03,3.611513454897533493e-03,3.309545934419037133e-02,3.370373998884494682e-02,-1.141325946087809982e-02,-3.676597690970470709e-03,2.992742495135836817e-02,6.076790786810696773e-03,4.167368136444425490e-03,3.220905759947165778e-04,-1.630321542545330044e-02,1.854407575696399380e-03,1.576564824669894962e-02,1.358756512149299992e-03,-1.307888100093590640e-02,3.676736539647388301e-03,-2.176403319951654512e-03,-2.009611768441316171e-02,-1.036459216632670995e-03,4.989062047078430401e-03,-3.819166237927169427e-03,-2.543454964675963270e-02,8.593753046608386403e-03,4.449106545803786263e-03,1.011157239368573515e-03,2.232350715018633844e-02,-1.628844882600595512e-02,9.416778788255780958e-04,-5.798886215902886339e-03,-1.617049014982217814e-02,2.564637018319216623e-03,1.172934194411386251e-02,-9.348280620471207877e-03,1.258785378201980956e-02,4.307076968688694323e-03,4.166823306012121080e-03,1.192675066141863065e-03,1.174888757817417299e-02,2.439420811514365212e-02,-1.599057430208951358e-02,5.831510107322248563e-04,-9.836776913821235896e-03,2.084322551281264559e-03,-6.716545971257528377e-03,1.966207276103464421e-02,-2.720106440918920038e-02,-1.054333417912776960e-02,-4.904233605749121899e-02,-1.068637990935192121e-02,-1.521461649968264621e-02,2.698063368537381365e-02,-2.509876781791998968e-02,-4.709042040432779436e-02,1.808680123194269032e-02,2.398999897087980906e-02,7.473140402281600904e-03,-3.874989405886014159e-03,1.265385056246643575e-02,1.284540224812963632e-03,-4.209605507526224984e-03,-2.095085634641947678e-02,-1.005366099112080941e-02,-2.234432341007592041e-02,-3.822400868694049957e-03,2.012067022505577632e-02,-7.987150297083439598e-03,6.610464646086998929e-03,-1.028684475295487538e-02,-4.805892772961676412e-03,1.625711799178284917e-03,-8.745590140453462363e-03,2.019926469357910537e-02,1.412469710289531062e-02,2.061729324280749120e-02,2.508255969743195500e-03,-7.765388806850069200e-03,9.220233107694025126e-03,-8.557558559937838928e-05,-1.986742728374690792e-02,5.696443072611769715e-03,-6.665433536821918420e-04,1.244868926775799349e-02,-1.533040298818978513e-03,3.183069741862644517e-04,-1.363324015251763527e-02,-1.284228003899153675e-02,-1.572126175305208276e-02,-2.824561116601563907e-02,1.352872102298500329e-02,1.436917332059898036e-02
-5.125748440805454921e-03,2.321375436644743800e-02,9.131156832419206129e-03,8.175300570923653767e-03,1.076704770472152253e-02,-3.913890216727616833e-02,4.414265711416983165e-03,1.304621802495944428e-02,-2.524177925611951513e-03,-5.112427823775010996e-03,-8.609195307099212421e-04,-8.840605688780039592e-03,1.582992340629194375e-02,-8.720308999504050237e-03,-4.457254757960799063e-03,-3.223383138682450744e-03,-2.197503621614123326e-02,9.798110373594099733e-04,-1.907715489130332523e-03,3.000970333139987498e-02,4.853691191103413731e-03,1.175977150350327079e-02,-1.264540796119922351e-02,-1.485054511820954083e-02,2.152686582794713366e-02,9.640022744696833540e-04,1.966566861028704039e-02,1.171847283362385632e-02,-3.917166780933452157e-03,1.375492837819108742e-02,-4.683870088387420347e-03,2.397276897487360045e-02,2.155700553435266342e-03,-1.212094455954867284e-02,-7.714325711519605562e-03,-5.332439922989667784e-03,-1.388366773111202220e-02,8.183903202557190823e-03,-1.138707905497724805e-02,4.878561079441395311e-03,4.465426116894097297e-02,1.488915022532658929e-02,-8.091821964060351424e-03,9.309149148181926868e-04,8.168656561036937228e-03,-1.867265875452788285e-02,2.312783922739288737e-03,-6.486950363930722371e-03,-8.568985171846116647e-03,1.479216200522261550e-03,1.910248746683196200e-03,-3.470981413579343668e-04,-6.472144974417178009e-03,-2.764249595600555293e-03,-2.302671975165744220e-02,-3.343912940867770078e-03,1.094927852258534631e-02,1.382393220299741807e-02,-3.621773309924473678e-03,-9.481900103317229475e-03,-1.199242865579691966e-02,1.159646601265821100e-02,1.363075717366571404e-02,1.801845086829425083e-02,-2.617169999287629126e-02,4.023224143778017861e-03,-1.484856488442060259e-02,-1.866795981247258360e-02,-2.030146244618972681e-03,-5.647579585253670841e-04,-3.624689966493120728e-03,2.702875079076118292e-02,-3.629062549425887338e-03,5.465681446856198757e-03,1.474428820783249029e-02,-1.278821315565740850e-02,3.523281829726165187e-02,-8.535127134704680995e-04,2.574062931024059808e-02,-2.906139480856699889e-02,1.884841505674844306e-02,-1.225246855313815580e-02,1.323617824411612350e-03,9.804499154576953174e-03,5.525627179948228163e-03,-2.994623029511994314e-02,2.279171984665932446e-02,2.051692813369917698e-02,1.514328376075187339e-02,-2.773399346500911300e-02,-3.619561032349081359e-02,1.323993473302667936e-02,-2.201042287781469070e-03,4.511752466220435472e-03,-1.318909544481587648e-02,7.886687823695018307e-03,-8.294932606233625452e-03,5.826907487017299846e-03,-5.640075975148073004e-03,-1.357328021310455837e-02,-6.815145682548578304e-03,-2.283681591792002807e-02,-1.653633851427110599e-02,-6.947499285024134712e-03,2.370857650681290965e-02,-1.762397767498727688e-02,-4.592763675985385430e-03,-2.560545760497213823e-03,-1.438883706421541578e-02,1.296168327168677019e-02,-3.915183451656948851e-03,4.929806376569756832e-04,4.319451225565347843e-03,-6.089733603837688136e-03,3.867147569197452225e-03,8.002011960389664776e-04,-2.298728344051221423e-02,1.021730489107820598e-02,4.686073782092930150e-03,1.887618385420964176e-02,9.288805170207161538e-03,6.161706720826078815e-03,2.211386621671584517e-03,-2.662859152418991029e-02,-1.513041935816845929e-02,-2.015973535453587442e-02,1.703592139859453486e-02,-1.250277675853348225e-05
6.036881001313425081e-03,5.720071473535260666e-03,-2.899061635688535425e-04,1.013573783293709833e-02,-2.854043812463184088e-03,-2.468082259694508000e-03,3.343145571612771063e-03,3.139599294551094423e-04,1.250986916109401298e-02,-1.606030951547534127e-02,1.013313917036478932e-03,-1.620440473380512642e-02,1.710027332475918746e-02,-2.030875903056418921e-02,-5.608386471163882142e-03,2.166587920820537208e-02,7.409746506991786268e-03,4.448389242021764250e-03,1.116513910379292665e-02,2.927430958279962983e-02,1.265564383745364230e-02,2.253026032749191540e-02,6.135665379347897928e-03,-3.662685773795873023e-03,3.932905668980679441e-03,-4.338815131609145338e-04,4.195407304526018941e-03,7.204385583587831487e-03,1.825853826801770823e-03,4.167020140048615512e-03,-7.585522700840563459e-03,2.682062319897307937e-02,-4.744465306779950412e-04,7.391517540848924683e-04,2.069128760191087449e-02,-4.952557735788028388e-03,-1.902994608564451476e-02,1.776639237208361239e-03,-2.051288925337479280e-02,-2.144285309076771409e-02,4.662407747433955363e-02,8.854588303693502679e-03,-5.778199127156472339e-04,5.621217940477256370e-03,1.469069175085136424e-02,-8.919414891945783366e-03,2.489810993457716986e-03,-7.105291384176716171e-03,-1.425532980688395436e-02,-3.592785012843155174e-03,-2.563370904692198796e-04,-6.157197428189529510e-03,1.472352106078408333e-03,-3.175615040192946315e-03,7.638975114185475417e-03,-1.609995915192207611e-02,-2.007007957092499587e-02,1.412166668343496981e-02,-1.060193464218930903e-02,-2.111794726486210250e-02,5.703640428975882866e-03,1.166523085964962791e-02,-1.458470322430706345e-02,1.847777987716922241e-02,-1.227358958122947092e-03,1.020370438591956634e-03,-1.073137919395252254e-03,-2.652033147903014657e-02,-1.005465338205203084e-02,-3.436398519109912404e-03,4.460784871129248354e-03,1.947294861742643324e-02,1.876221664665305615e-03,1.677823476823964502e-02,-4.347690184826407192e-03,2.162303270184130072e-02,3.322008248304620520e-02,-2.661765147370504219e-03,1.271878095763635461e-02,-1.828128297478627887e-02,1.715721255387333763e-02,1.113116538955806131e-02,1.030201767373490306e-02,1.651052816811002591e-02,-2.200023495261477918e-02,-4.071822295676821163e-02,4.867986131487192156e-03,1.274751627513056999e-04,1.098664206412496187e-02,-9.620649557836088300e-03,-5.325983598164463900e-02,1.960725176173528858e-02,4.919533083120658512e-02,9.668076924865863855e-03,-2.124815921753846898e-02,7.430805848975456304e-03,-5.833313958409453923e-04,-1.817897086248186633e-02,1.919521367052514889e-03,-8.956119360920406641e-03,-2.134011114020075220e-02,-9.504239761884523616e-03,6.187803225224244169e-03,1.061660471595245138e-03,9.862636989151197728e-03,-6.321820535880815113e-03,-2.583924676731505499e-02,4.093794522822608549e-03,3.864562643204831616e-03,-6.630609511870198119e-03,2.243737673506642633e-02,1.593054816339766616e-02,-9.268793222998882378e-03,-1.502897267075943046e-02,8.021512649966041665e-04,-1.381284767914481119e-02,-2.979477175235503011e-02,-2.808962705415754047e-04,-9.888893401607298794e-03,3.294412683425752657e-03,-6.034481944724967269e-04,1.515374506819875712e-02,-4.255762040934550627e-03,-2.273639350626427760e-02,-5.286403206132014952e-04,7.742196162871329938e-03,5.135558358803257208e-03,-9.386993921574805777e-03
3.674706503186428528e-03,1.138956607364492377e-02,-4.787294667512175840e-03,1.180875296066412512e-02,-1.599636758626379190e-02,-7.704978527400476070e-03,1.552609392526469942e-02,7.607558492423098333e-03,1.232256154691551732e-02,1.135290302528788216e-03,5.987644633548163883e-03,1.935495713469099523e-03,1.054291855385114038e-02,-1.712918694306237236e-02,1.052975673549349199e-02,1.191484613682657935e-02,-1.257959811998457869e-02,-1.688445113300164960e-02,6.006905154885396140e-05,1.925784831365421126e-02,1.404765672665630538e-03,3.007157987264147056e-02,2.883699928305244464e-02,-7.903246632173004105e-03,6.277289934762030933e-03,-2.396544503604146250e-03,3.811362135597749171e-04,1.320381003773248669e-03,-6.771261591484189525e-03,-5.309633858813431195e-03,8.837687569239874362e-05,2.046884769597381512e-02,1.457864442062184289e-02,9.700424865002792510e-03,-1.274621023486103427e-02,5.039963489847819160e-03,-3.682284309477447393e-02,-2.773826170183764026e-02,-2.178807393767448475e-02,1.476712612954958828e-02,3.014992947924146835e-02,1.798833124127757060e-02,-5.571974807068039506e-03,3.317468992878686018e-03,9.767128563036768171e-03,-2.713683322133122675e-02,2.177292458416811571e-02,2.734581015510207519e-03,-1.314925996563986489e-02,3.361300003487586747e-03,5.830618873043023377e-03,1.261443115575488529e-02,-8.490212310419239378e-03,1.316602616896311861e-02,3.636509251802600481e-03,2.030042261673183687e-03,-5.742688980959740654e-03,1.741160151310230247e-02,1.473641637297360861e-03,-3.617502701650733565e-02,-2.652844499307939301e-03,2.030480069967862192e-02,-1.121518424459960923e-02,3.134972775878355766e-02,5.864976334665615576e-03,-2.013684710811208811e-02,-1.146214465211184072e-02,-2.259279789178797113e-02,-1.669066949873850231e-03,4.786070617914597869e-03,-1.482241616520045113e-03,-1.361818138437303387e-03,5.693180290498600811e-03,1.653398308714884319e-03,-2.069581562043000880e-02,-1.967126189508510564e-02,3.602515863054154416e-02,-3.607162658085161146e-03,1.525297222513477546e-02,-5.033782943038687605e-03,1.011266384459467331e-03,1.456908686468735142e-02,2.737430458136930200e-03,9.533107165069911598e-03,8.780073359753838916e-03,-5.001254272986827704e-02,3.894418885608809562e-03,-1.036694822592149241e-03,2.454707887536409019e-02,-2.863095641688643417e-02,-5.120104888963034756e-02,4.600488688472687514e-03,4.982118367035566768e-05,-4.906668136343282464e-03,-2.073524950094934177e-02,1.866321677257261336e-02,-5.179333155464074280e-03,-2.976770604723101565e-03,-1.662427107704163992e-02,-6.726143562316425593e-03,-4.285071289127574852e-04,-1.386162148227060471e-02,-1.272637048077393876e-02,5.391399976085943686e-03,-2.167270656522518862e-03,-1.786800782523776309e-03,-1.172449521405749887e-02,-1.193829080869358286e-03,3.706307740091021718e-03,-7.296342379317846162e-03,1.313664030709390564e-02,7.417708190727542554e-03,6.782891740843489947e-03,1.239560727487385751e-02,-4.701401476264034304e-03,-5.658328461472488490e-03,-1.906284402173919444e-03,-5.750529450121666386e-03,-2.134749418068669288e-02,4.158309065119363684e-03,-2.891706438585884154e-03,-1.404271932315572652e-02,-2.043440768772542687e-03,-4.599486498503824010e-03,1.211411859513713803e-03,-1.223983822267455703e-02,1.473813671891316748e-02,-2.412399463527115529e-03
-1.823181243741649193e-02,2.472663039229586971e-03,2.000136862296691964e-03,-7.557239599030066320e-03,-1.545363474525967250e-03,-3.799356021294219687e-03,2.050261735294467511e-03,2.666525553222719863e-02,-1.636802791964571098e-03,6.142919015959221948e-03,-4.025553499731372026e-03,-1.322723934334594197e-02,-1.242633153664918916e-02,-2.108069459952650535e-02,1.479730381194314763e-02,2.824785654425677681e-02,-2.225697371846602907e-02,2.492838775660152252e-03,1.448653747925537222e-02,2.353206825477623457e-02,1.968691028344998761e-02,1.795876780788760799e-02,-5.856776335521024328e-03,-2.086314681898168363e-02,7.475347635690934162e-03,-1.837129441305166561e-02,-1.030754354683146960e-02,1.702716882515078328e-02,-5.912538839020733267e-03,9.278174380657927198e-03,-2.150550032831265168e-02,4.231305406630620977e-03,-5.864888016655175028e-03,-5.184855365134034486e-03,-9.601431592255488257e-03,4.518385648416290042e-03,-8.807766557376790414e-03,4.868723266041380913e-03,-8.761290050094619128e-03,7.954882817181808041e-04,4.677151911532845263e-02,6.406825704068758696e-03,-1.307332723598207333e-02,1.740840118567153500e-03,1.233965636628904690e-02,-2.544034623985100274e-03,-1.007156059752708534e-02,8.791442845719106298e-04,-1.394278027639408828e-02,-9.740203536303018717e-03,1.804511484261078075e-02,-1.152667186660338329e-02,3.205977573191358572e-03,5.210936121285460187e-04,5.758203111282793893e-04,9.756561460106089045e-03,-9.797215321299360125e-03,2.262122609133437878e-02,-6.748158926196210633e-04,-2.572924472494781539e-02,1.214085738403247045e-02,1.544477307028095658e-02,-6.733047628381409223e-03,4.095639708710771543e-02,-1.762908555252950052e-02,-8.281944618259443058e-03,2.261407038605741868e-02,-1.504189010487042184e-02,1.031067664836707136e-02,-6.811846999440905777e-03,-6.887517000291126616e-03,-6.680840385708868012e-03,-8.002645452728714831e-03,-3.845313686367556050e-03,1.014570822645630664e-02,-6.405958130821134099e-03,1.735731383985610748e-02,-8.996616973544790605e-03,2.879934600351009150e-02,-2.421171234588400181e-02,3.534328360759270322e-03,2.288233125743827784e-02,4.310849494179343558e-03,5.693638028340117577e-03,-3.240080470070330642e-04,-4.412064911061514688e-02,-8.908041786730521230e-03,1.232309788665645472e-02,-2.211222696043456479e-03,-1.083003073417810116e-02,-5.060887288809293866e-02,-4.682506713526999979e-03,9.072172952228408846e-03,2.158235239302144781e-02,-9.721474718990851579e-04,1.215949857243878510e-02,-1.266424510613972827e-02,1.450252530191973623e-02,-5.587240172758351289e-03,-2.331071287828985483e-02,-2.288203662379041312e-02,-8.085727021490031127e-03,-5.236382378202957162e-03,-3.471061335587816848e-02,-1.510685024890773579e-03,-8.337427404674082124e-03,-1.567001568303653600e-02,-4.345765104638779977e-03,-1.858156197861473083e-02,-1.245086413307279960e-03,8.938232794982103532e-03,-9.915644739104511468e-04,1.755070771675519559e-02,-5.416389166937019516e-03,-4.336960734952866742e-03,2.158249250284769230e-02,-1.489667225802997728e-02,-9.248111815735720123e-03,-2.869179520298258818e-03,-8.181101941557866047e-03,9.190180269307303071e-03,2.691038574720056465e-03,-8.140773203613367939e-03,-6.130187164078483054e-04,8.995919071293982661e-03,-1.054580728489061710e-02,1.403232062872901463e-03,1.759522802872121559e-03
-1.174230139713570986e-02,1.853117161573850091e-02,6.834715280121007007e-03,1.097760621701846136e-02,-2.348542472879902240e-02,-1.526740754968723690e-02,-2.979819071178311813e-03,1.861382840594870414e-02,-1.098365409013222875e-02,-4.042743109473466868e-04,-2.712186240703817058e-02,-1.411479394894334626e-02,-2.312843495571568694e-02,-1.770279437127576447e-02,9.948895212914246264e-03,1.995650537619119910e-02,-6.200300450803781192e-03,-4.919276713284660707e-03,-7.657452394774709806e-03,1.274209468335109861e-02,-6.031017375726151642e-04,2.616691701761646519e-02,-1.144929153708628550e-02,3.016222568114597293e-03,2.254066523581857440e-02,9.709370157865286968e-03,1.023252333167461864e-02,2.831325175491401780e-03,1.859164805987533614e-02,-3.229271969441531095e-03,-1.184108072578082989e-02,4.037864860308937320e-03,1.812478413533693752e-02,4.482950251929547839e-03,-1.358601853413791971e-02,1.027512489582339686e-03,-6.873403997891202981e-03,-1.363899507203019355e-02,-6.821784262218348171e-04,-3.211675006340413644e-03,4.222490812178449071e-02,1.922953123709680856e-02,-4.131197246680358946e-03,-1.322051691663084748e-02,-3.667761234267887926e-03,-9.907631720998117189e-03,1.570510502158596264e-02,-1.114316561484834239e-02,-2.055285979178886682e-02,-5.157345289912380372e-03,-3.566697009773507274e-03,-1.315636071029938590e-02,1.396513768803378866e-02,7.766195026114725009e-03,-3.845674937947232350e-03,-4.129404847526038647e-03,-8.156683245611641778e-03,1.328671845054359840e-02,2.509991324659665516e-03,-1.127544755340080355e-02,4.745094913547276937e-03,-1.685960230118350826e-03,-2.104297397291135952e-03,2.490782837225950438e-03,-2.646443325052762544e-02,4.584446274705762745e-04,1.337371057474465511e-02,-2.171819140882929114e-02,6.203098502649725650e-04,-2.016277025923956384e-02,-1.058274424112083494e-02,1.604896559844487145e-03,1.694551526841348021e-02,-8.292530761744363113e-03,6.455512768071475400e-03,1.817080831879695074e-02,2.831880758767849060e-02,-4.383780182651936426e-03,1.213709617467940288e-02,-9.248610359687211430e-03,4.799526163549972316e-03,-1.245086886728375558e-02,-1.974983205574392612e-03,1.163802614850195844e-04,-2.009334456418708503e-02,-3.648136313227421518e-02,-2.388537733200857271e-03,1.839302150705063657e-02,1.859315268510448524e-02,-2.980080962847261178e-02,-6.177922237388366183e-02,4.848858872079178130e-03,3.622043504422352289e-02,2.488642438767190573e-02,-1.350331493826421696e-02,-7.027835701371207278e-03,-1.761449658655351788e-02,1.521768358217008392e-02,-1.192381545506332116e-03,-2.217179678466171810e-02,-3.391099500886154017e-04,8.866362970130591123e-04,-2.682706761479795865e-02,-7.205050594687729786e-03,-6.775405829511634698e-03,4.174931907940198500e-03,-1.697442434901871855e-02,-1.068072088986129695e-02,-4.318163556676015043e-03,5.069598520044481249e-03,1.769743999173638976e-02,2.430146075200521373e-03,5.077792038000445915e-03,-1.252416129857734711e-04,-5.596699775603578009e-03,-3.993068353447545111e-04,-1.281204871644755876e-02,7.899752398695603778e-03,1.362801876145842040e-04,-1.055555540416132018e-02,-7.297355443975385696e-04,1.524803941525482674e-02,-1.988219823626085139e-02,1.040198887508607048e-02,-4.741764595577388497e-03,-6.869709325971056456e-03,1.382984826832176981e-02,1.426348615461038062e-02
-4.800173346336135578e-03,2.624923160746479855e-02,-6.353501990851989113e-03,5.783841195657733573e-03,6.640752860399351358e-03,-1.223192000606666135e-02,-6.011937313312147244e-03,-7.826803290582828865e-03,1.641271734819579886e-02,-1.380331414298110841e-02,-6.114077480279912075e-03,1.729673091450803675e-03,-2.862069311003421763e-04,-2.125408307238895941e-02,-6.381620719408767108e-04,6.532268984887929821e-03,-3.466029772663823793e-03,1.355210412405696493e-02,1.832586997173133933e-02,3.577958476599366749e-02,3.207953906718492756e-03,2.613809126820034259e-02,-6.779161081864415982e-03,-3.558238080980139720e-03,1.035519266851639246e-02,1.996901718461636249e-02,-3.892473030451204952e-03,2.375483213706601308e-03,-3.210331907049418509e-03,2.061509713056986284e-03,1.824109229645828195e-02,5.961947723607865027e-03,1.138843463757017657e-03,6.176743364061069649e-03,6.140362975991931274e-03,-1.893436106081043820e-04,-2.820418356148403707e-02,-2.839704214774652416e-02,-1.208518376266421411e-02,2.133262820458377285e-02,2.376446325929757256e-02,2.198377564558144648e-02,-2.553139899797876936e-02,-1.384021377003367102e-02,8.095600102913913174e-03,-1.285303874522513747e-02,7.652644299786655032e-04,-2.070381662437227946e-03,-2.862452972905557471e-03,-2.342773281881743974e-05,5.439945368863525511e-03,9.478433715593077499e-03,1.627269697151580499e-02,2.070996380013553906e-02,-1.544728574866571541e-04,1.795331768333187274e-03,-1.883431448966910605e-03,7.547198619111848347e-03,-9.613587138646306068e-03,-1.817547015474629130e-02,-1.172400772893987184e-03,-1.410352786807643477e-02,-5.681314203304722692e-03,1.740074070656509250e-02,-1.577870789353548117e-02,-9.330038610857282859e-04,1.263637014380441202e-02,-1.930794320234456921e-02,9.045050944924682562e-03,-1.362482807687447062e-02,-9.757092968151194826e-03,-2.851267446126586839e-03,-2.439329565403141958e-04,1.199886408478439102e-02,-1.770651955705681430e-02,-8.433702830071375736e-03,1.810377214427969644e-02,-1.058865206832901480e-02,1.836997334979280361e-02,-2.867744963325745064e-02,1.677293336045129063e-02,1.159130088843866174e-02,7.133778599481904563e-03,2.165219318103395966e-03,1.359949392144838010e-02,-4.703628956076347928e-02,-1.523369905080763703e-03,1.273431538571831792e-02,-1.452401001415667362e-03,-8.303006994157001441e-03,-2.172554859099553107e-02,4.272459299405321380e-05,2.114990019101884236e-02,1.553870980693531322e-02,7.063593963324061101e-03,2.093035951538765871e-02,-1.749594856728330788e-02,1.682980551184817125e-02,-2.207988010629012912e-02,-9.711058663554587855e-03,-6.697681124122230323e-03,-3.182786441614177033e-03,8.649001534442651504e-03,2.385464771037280191e-02,7.547185907121833036e-03,-6.202695694893563955e-04,-8.224548971332163935e-03,5.919487991443915867e-03,-2.105658286632120305e-02,5.718859871324419265e-04,1.986579759262081801e-02,1.160945274471583168e-02,-1.625270201972095138e-02,-6.081012346864185167e-03,8.304453289676355654e-03,1.433199585095486749e-02,-1.336686029764491170e-02,6.457537058758632681e-03,1.231454468652929540e-02,1.023078010131773553e-02,1.793229682543834953e-03,-1.670577324586838830e-02,-9.998692188337248571e-03,1.567789346654893581e-03,-5.127948563868649917e-03,-1.488996000523454440e-02,1.090246044406058962e-02,-1.380910575318255659e-03
